svm_type c_svc
kernel_type linear
nr_class 84
total_sv 1748
rho 0.73794 -1.52034 0.49582 0.888283 1.50612 0.920569 1.72053 0.00199466 0.110082 -1.11444 0.15693 0.433851 -0.511294 0.0430304 1.58823 -0.145962 0.235929 0.360768 0.470114 0.201417 0.0726315 0.192586 0.17444 -0.063997 0.198469 0.450585 0.422281 0.53855 0.570554 0.46493 0.241408 0.537122 0.999336 0.489633 0.648469 0.530508 0.136585 0.504398 0.618231 0.999853 0.683971 0.452375 0.416804 0.608779 0.388742 0.413402 0.429064 0.373678 0.310734 0.675266 0.391493 0.648999 0.3523 0.480746 0.337604 0.480216 0.594685 0.418307 0.483368 0.496557 0.484389 0.691916 -0.547829 0.607689 0.59905 0.445754 0.174114 0.478829 0.701039 0.529588 0.585428 0.22426 0.641699 0.377594 0.399939 0.411498 0.152863 0.221058 0.167662 0.183532 0.293657 0.479481 0.403444 -2.06012 -0.00693909 0.539123 1.66403 -0.332117 0.142663 -0.257033 -0.383307 -0.809705 -0.111345 0.252102 -0.544419 -0.216086 1.6026 -0.418984 -0.0853826 0.278572 0.306706 0.0082895 -0.871973 -0.73592 0.929284 0.0370547 0.338846 1.15566 0.624855 0.724235 0.29817 0.248698 0.0905189 0.208459 1.00025 0.199033 0.482422 0.171472 0.00612396 -0.211713 0.887663 1.00044 0.5161 0.221195 0.420628 0.224821 0.287406 0.114064 0.326659 0.0729311 -0.0569372 0.364293 0.363038 0.483805 -0.0187609 0.191242 0.0577534 0.426395 0.430181 0.197384 0.38102 0.30668 0.334629 0.539732 -1.42966 0.278511 0.0350247 0.20888 -0.0588668 0.246549 0.158979 0.321649 0.330233 -0.0252517 0.465874 0.0862265 0.0643651 -0.353069 -0.0577867 -0.0378479 -0.0426091 -0.0586295 0.0152239 0.1131 0.0369988 0.842858 -0.209045 2.66238 -0.01636 2.25856 0.260065 1.39491 -1.10188 0.603192 0.700178 -0.872764 0.243629 0.987407 -0.427403 0.976856 -0.275893 1.04445 0.418963 -0.542186 0.583315 0.399884 0.119133 0.146424 1.00737 0.580146 0.800219 0.79252 0.526447 0.313329 0.73586 1.00019 0.757764 0.817646 0.919327 0.299181 0.578156 0.826261 1.00016 0.683877 0.66345 0.623704 0.884552 0.796948 0.946036 0.673925 0.571723 0.531637 0.911764 0.5358 0.818903 0.497603 0.742664 0.614842 0.674096 0.829017 0.615931 0.796821 0.53618 0.741526 0.859611 -0.859311 0.742228 0.831522 0.443847 0.410391 0.64412 0.996885 0.673279 0.753179 0.413761 0.889801 0.627315 0.600667 0.992166 0.455048 0.531781 0.414877 0.423613 0.538302 0.635736 0.701988 -0.153217 -0.324815 -0.530159 -0.641727 -0.421799 -0.323521 -1.11263 -0.175718 0.165171 -0.747899 -0.371868 0.217128 -0.433829 0.0893628 -0.498876 0.260658 0.210949 -0.940045 -1.21584 -0.277486 0.119674 0.344492 0.583056 0.191636 0.676375 0.398335 0.247796 0.0363566 0.185793 0.999944 0.243562 0.447815 0.218857 -0.110285 -0.0660201 0.559569 0.999586 0.502022 0.235853 0.3997 0.286279 0.595864 0.338691 0.107978 -0.0478971 0.0494259 0.427652 0.331809 0.451689 0.125341 0.296342 0.0556094 0.225444 0.411088 0.248375 0.46996 0.37596 0.257498 0.544257 -1.37044 0.273547 0.0649123 0.197467 -0.103662 0.225932 0.238548 0.322819 0.34686 -0.0204406 0.526482 0.0887473 0.0743307 -0.349811 -0.0966091 -0.0707041 -0.0847235 -0.0776506 -0.054144 0.104994 0.0249389 0.726767 1.30577 0.602725 1.51105 0.743417 -0.491557 1.13073 0.454786 -0.670132 2.06609 0.582514 -0.0721542 0.666259 -0.426506 0.74817 0.330931 -0.433855 0.0777051 -0.0795663 0.27964 0.140911 0.429129 0.430056 0.542328 0.515983 0.52596 0.221156 0.567688 1.00018 0.559549 0.609203 0.57695 0.143497 0.415939 0.516562 0.999664 0.640466 0.510344 0.414569 0.592902 0.380991 0.74949 0.479655 0.337645 0.171237 0.644743 0.430085 0.712024 0.354129 0.392625 0.324242 0.561459 0.609999 0.39541 0.559119 0.474848 0.451448 0.634335 -0.479624 0.55088 0.510494 0.316963 0.171542 0.439368 0.607953 0.524473 0.520682 0.189708 0.542567 0.354915 0.309965 0.594198 0.181671 0.251303 0.211234 0.179555 0.332176 0.466356 0.344799 -1.15998 0.157392 -0.532871 0.668114 -1.11035 -0.452645 -0.0242589 -0.862725 -0.343031 0.037795 -0.837541 -0.0899334 -1.51252 0.234106 0.0942543 -1.07813 -0.219502 -0.706233 -0.890748 -0.393002 -0.0148932 0.0294262 0.323585 0.27764 0.269367 0.0124761 0.217553 0.999998 0.111826 0.372538 0.123347 -0.113244 -0.244639 0.174511 0.99968 0.466871 0.0475918 0.192731 0.239318 0.338767 0.569659 0.0275344 0.0162274 -0.0580566 0.419005 0.16611 0.425682 -0.0707491 -0.000268342 0.0186185 0.224401 0.273381 0.170362 0.245534 0.294305 0.110772 0.479655 -1.51422 0.200564 0.0569598 0.0639408 -0.133511 0.188045 0.212916 0.278107 0.271522 -0.0755896 0.34512 0.0511729 0.0106679 -0.520905 -0.116966 -0.110105 -0.0648432 -0.104276 -0.025349 0.11975 -0.0212311 0.869305 -0.473207 0.665982 -0.259537 0.362144 0.416653 -0.447072 0.537071 0.951117 -0.101229 0.621504 -0.5535 0.560679 0.270113 0.0445178 0.314042 0.164769 0.184248 -0.0449428 0.507794 0.342261 0.429947 0.432748 0.483307 0.170916 0.543135 0.999767 0.564573 0.599581 0.598256 0.057506 0.38278 0.439058 0.999683 0.642648 0.500387 0.390318 0.507176 0.411234 0.519119 0.317985 0.283357 0.217254 0.596917 0.453148 0.626497 0.298501 0.467844 0.326449 0.416456 0.5439 0.285697 0.638741 0.427264 0.362124 0.632231 -0.598096 0.484623 0.389556 0.372152 0.0552533 0.341391 0.528164 0.456825 0.492607 0.122597 0.531742 0.222875 0.244407 0.347533 0.0470314 0.128201 0.0766652 0.0333493 0.177392 0.345524 0.238522 -0.529976 -0.116778 -0.832159 -0.196566 0.172286 -0.50328 -0.060726 -0.554228 -0.532047 0.00676465 -0.993136 0.180422 0.0418598 -0.279419 -0.298808 0.69379 0.0576326 0.382397 0.193415 0.225822 0.339261 0.197722 0.389738 -0.00252937 0.415578 1.00003 0.264623 0.453756 0.221957 -0.22254 -0.168156 0.213106 1 0.51233 0.585829 0.298776 0.158183 0.213172 0.326598 0.0723852 -0.0517484 0.0619057 0.301238 0.407468 0.545546 -0.0120251 0.0695373 0.229184 0.35141 0.415041 0.0992739 0.447261 0.319929 0.116538 0.359842 -0.973196 0.211039 -0.0218013 0.212753 -0.13202 0.181995 0.100157 0.29518 0.313595 -0.0607427 0.368576 -0.00193006 0.00795552 -0.45673 -0.139718 -0.153191 -0.147035 -0.130092 -0.102163 0.0339362 -0.04717 1.68183 -0.626426 0.0270035 0.473688 -0.180793 0.416519 0.9817 -0.247962 0.683448 -0.0649645 0.748778 0.155846 -0.663958 -0.00153667 0.0525084 0.356553 -0.00245851 0.76187 0.3842 0.74592 0.584073 0.43009 0.221679 0.587864 0.999764 0.576089 0.580812 0.387433 0.120192 0.690898 0.525566 0.999453 0.563333 0.485802 0.621623 0.732207 0.759081 0.784264 0.502582 0.23715 0.227083 0.724487 0.541523 0.903708 0.288676 0.450298 0.404616 0.393693 0.657009 0.420485 0.644535 0.492568 0.680119 0.730275 -0.747481 0.527748 0.471242 0.276975 0.17344 0.437522 0.574036 0.481321 0.510843 0.163472 0.557013 0.350342 0.288904 0.331181 0.16129 0.232327 0.206 0.169943 0.312672 0.431457 0.334405 -1.00318 -0.449079 0.0434484 -0.762129 0.0775558 0.106011 -0.707988 -0.358853 -0.559921 -0.153936 -0.292776 -1.10535 -0.645124 -0.622396 -0.683699 -0.480257 -0.27536 -0.412671 -0.204373 -0.104302 -0.228944 -0.233461 0.137048 1.00036 -0.146577 0.0591253 -0.197166 -0.452505 -0.17798 -0.351036 1.00005 0.205938 -0.287049 -0.22551 0.894179 -0.262439 -0.458187 -0.368059 -0.277625 -0.237178 0.162349 -0.189527 -0.159061 -0.190845 0.12798 -0.212277 -0.0277186 0.228697 -0.147949 -0.00284621 -0.0322055 -0.0262049 0.134358 -0.965929 -0.105255 -0.244075 -0.0112823 -0.332059 -0.0412221 -0.125976 0.182229 0.0108467 -0.387761 0.00812275 -0.213932 -0.207712 -0.899352 -0.35428 -0.348536 -0.335675 -0.328552 -0.246071 -0.138279 -0.187968 1.18286 0.725615 -0.550706 1.88815 0.99622 0.378704 1.77919 -0.466972 1.10379 0.495445 0.791586 0.423722 0.759013 0.757446 0.288081 1.0713 0.632659 0.982486 0.813184 0.675417 0.341823 0.730176 1.00008 0.876707 0.80515 0.865929 0.278117 0.600826 0.832371 1.00053 0.67283 0.705298 0.752418 0.97818 0.805831 0.957797 0.650715 0.623614 0.517741 0.917957 0.639224 0.86616 0.342002 0.65978 0.723222 0.619186 0.953653 0.658879 0.759071 0.630852 0.772033 0.92865 -0.0679913 0.610401 0.479926 0.381873 0.371957 0.585052 0.562079 0.588127 0.554608 0.331308 0.673182 0.436443 0.438019 -0.0114567 0.330233 0.359821 0.340567 0.343358 0.359058 0.422563 0.367856 0.932381 -1.36808 0.855852 0.583206 -0.742725 1.05967 -0.877136 1.32513 0.176971 -0.825794 0.0992118 -0.265442 0.272959 -0.663121 0.380365 0.298146 0.366435 0.306384 0.468096 0.11433 0.284223 0.999869 0.52431 0.505982 0.360833 0.00822219 0.406943 0.318979 1.00004 0.531619 0.200875 0.265532 0.356001 0.371539 0.344945 0.309545 0.029492 0.0820687 0.638962 0.173677 0.538125 -0.0262063 0.348684 0.331822 0.376848 0.544436 0.281533 0.388288 0.836363 -0.152071 1.12142 -0.74429 0.401316 0.289199 0.182643 0.0587545 0.300174 0.280379 0.382408 0.351192 0.0175102 0.433002 0.17808 0.12463 -0.231222 0.0432126 0.0782376 0.054294 0.027239 0.115387 0.243198 0.128613 -0.883833 -0.383258 0.55491 -0.644482 -0.262621 -0.525369 0.0123591 0.671438 -0.63082 -0.32656 -0.459935 -0.239548 -0.55017 -0.101976 0.112853 0.0501341 0.0309672 0.103938 -0.120699 0.0785849 0.999646 0.239129 0.0776041 0.353801 -0.301338 -0.134436 0.114863 0.999595 0.157295 -0.0129084 -0.0503033 0.0253293 0.0215839 0.0419019 0.519046 -0.0780111 -0.185096 -0.0993513 -0.0251321 0.242936 -0.201147 -0.066187 0.146757 0.22388 0.190694 -0.0135546 0.0636961 0.287387 -0.118578 -0.130964 -0.739368 0.0185931 -0.205323 0.0607244 -0.275871 0.0511008 -0.101871 0.103016 -0.0212372 0.448274 0.896657 -0.132213 -0.221344 -0.665318 -0.325751 -0.375032 -0.306939 -0.314709 -0.214752 -0.131977 -0.249857 1.84194 0.809442 0.462841 1.30619 0.571136 1.22548 0.476547 1.00345 0.558854 0.846045 0.622962 0.343003 1.03743 0.608108 0.705617 0.656498 0.649289 0.354509 0.705951 1.0001 0.70956 0.774415 0.672452 0.239454 0.684179 0.733506 1.00032 0.696463 0.706758 0.582304 0.840775 0.652162 0.895003 0.596887 0.554788 0.456603 0.786289 0.621052 0.745824 0.335281 0.591114 0.602185 0.600577 0.823525 0.566044 0.736128 0.578592 0.662763 0.817081 -0.146324 0.639968 0.527199 0.440332 0.332001 0.538058 0.586204 0.599135 0.647811 0.355965 0.710106 0.44887 0.41783 0.574856 0.282944 0.356851 0.272619 0.274904 0.330091 0.407881 0.364108 0.960075 -0.555866 -0.289974 -0.885257 -0.890843 -0.17344 -0.719055 -0.743552 -0.251956 0.205395 -0.567782 0.189684 0.129231 0.596837 0.236924 0.12154 -0.116617 0.145132 1.00002 0.290817 0.37786 0.169224 -0.158181 0.212921 0.0985755 0.999703 0.419775 -0.0786147 0.266684 0.235326 0.168602 0.151037 0.0763007 -0.359021 -0.252185 0.369019 0.2027 0.458849 -0.207035 0.0528812 -0.0246073 0.20139 0.512481 0.0880296 0.109905 0.527111 -0.12221 0.240001 -1.05719 0.2382 0.136315 -0.0462777 -0.111734 0.156721 0.21951 0.243659 0.219037 -0.108317 0.302824 0.053971 -0.00668555 -0.214994 -0.124838 -0.0788783 -0.100021 -0.117123 -0.00779614 0.110324 -0.0133193 -0.785786 -0.171764 -0.953901 -0.320656 -0.257755 -0.986671 -0.609157 -0.568074 -0.345877 -0.670121 -0.199692 -0.236742 -0.0126091 0.35994 -0.0826386 -0.103674 0.0613015 0.9998 0.203265 0.149413 0.491658 -0.256916 -0.135669 -0.0688441 0.999601 0.276361 -0.125584 0.0161164 0.128426 0.0698849 -0.0880163 -0.190255 -0.248006 0.04128 0.0740185 -0.11264 0.301789 -0.164592 -0.0301225 6.75895e-007 0.237992 0.18142 -0.0628983 0.0623588 0.23422 -0.0136113 0.361376 -0.865156 0.0850088 -0.0957544 0.0181601 -0.280467 0.00264066 0.0307063 0.164727 0.125866 -0.22641 0.126164 -0.0413906 -0.159291 -0.732852 -0.297287 0.130328 -0.275353 -0.300117 -0.193828 -0.0759693 -0.119958 1.23519 0.216322 0.451755 0.337082 -0.0155101 0.055006 0.12783 -0.259705 0.193235 1.03321 0.415919 0.666085 0.600935 0.583479 0.335619 0.625409 0.999697 0.608564 0.690877 0.71123 0.286808 0.761557 0.704344 1.00006 0.686571 0.570137 0.556003 0.680789 0.593563 0.850227 0.491053 0.412841 0.295756 0.724917 0.544692 0.735355 0.440728 0.519336 0.49252 0.491422 0.679612 0.458475 0.622834 0.559805 0.592668 0.759081 -0.798629 0.573174 0.528405 0.381883 0.273524 0.488131 0.614027 0.57846 0.61425 0.273072 0.646844 0.455799 0.395913 0.809211 0.247477 0.33763 0.248858 0.229911 0.357786 0.441435 0.428613 -2.00025 -1.51974 0.0526604 -1.16012 -1.93901 -0.623859 -1.47252 -0.599325 -1.11483 -0.00857748 0.171891 0.388698 0.375778 -0.0778152 0.464368 0.999875 0.151231 0.464888 0.23712 -0.0877186 0.891052 0.49326 1.00011 0.480127 0.295739 -0.013452 0.321851 0.290549 0.268767 0.194462 -0.0796761 0.500341 0.552364 0.139229 0.543509 -0.0380527 0.200989 0.26615 0.311429 0.524579 0.230358 -0.283385 0.36231 0.576784 0.485505 -1.37322 0.322114 0.212869 0.225352 0.0123543 0.283125 0.284607 0.386499 0.385405 0.0166984 0.347108 0.190048 0.0667158 -0.0942134 -0.00274172 0.0462214 -0.00110167 -0.00450487 0.0445993 0.140003 0.062111 0.636244 0.315842 0.289425 0.442172 0.280251 0.266941 0.0543488 0.963663 0.487115 0.66403 0.616173 0.525088 0.279319 0.608408 0.999924 0.629345 0.762141 0.613092 0.230965 0.548904 0.617269 0.999612 0.667525 0.590554 0.517597 0.74432 0.559488 0.731728 0.487327 0.498404 0.304772 0.749471 0.484634 0.716814 0.370079 0.529605 0.439353 0.507749 0.718459 0.471198 0.605624 0.537066 0.633012 0.783635 -0.21139 0.549956 0.396889 0.356366 0.216305 0.464074 0.46108 0.559846 0.559215 0.237099 0.669303 0.382709 0.307362 0.496437 0.159206 0.235708 0.160105 0.183909 0.240445 0.330585 0.31911 0.710749 -0.924865 -0.347428 -0.678412 -0.588454 -0.758128 0.102107 0.0900192 0.0549354 0.0669032 -0.608726 -0.105426 0.0776457 0.999712 0.1369 0.309774 -0.0449055 -0.168547 0.126409 0.126019 0.999893 0.331397 0.0986319 -0.142203 0.140109 0.0280647 -0.666547 0.114428 -0.161777 -0.369039 0.236662 0.0205624 0.392007 -0.228302 0.117124 -0.00964782 0.198536 0.301874 0.0853351 0.069468 0.127878 1.90033 0.504127 -0.800795 0.227967 0.0621773 0.104197 -0.158762 0.105443 0.0751125 0.198145 0.194752 -0.156649 0.237892 -0.0193918 -0.0871328 -0.432785 -0.1794 -0.136445 -0.158689 -0.176173 -0.10141 0.0417509 -0.109659 -0.354421 0.022343 -0.165123 -0.000457447 -0.181604 0.0793874 0.00410721 0.11333 0.111293 0.0644192 -0.0402067 0.190261 1.00008 -0.509719 0.313052 0.160835 -0.00524778 -0.343877 0.0640718 0.999941 0.451963 -0.0326114 0.0217191 0.19777 0.107371 -0.0807327 -0.0430189 -0.15224 -0.106007 0.0871377 -0.045413 0.812115 -0.0403956 0.00297219 0.0132657 0.122357 0.196436 0.250838 0.129197 0.179208 0.229371 0.445426 -0.430678 0.139101 -0.0319577 0.352456 -0.173137 0.151788 0.0667404 0.20435 0.454261 -0.168303 0.275682 -0.0542517 -0.0415812 -0.503256 -0.178025 -0.178225 -0.160613 -0.037445 -0.101302 -0.00291875 -0.0368568 -0.696546 0.826351 1.31305 0.985586 1.53457 0.415038 0.646841 0.62672 0.53086 0.306456 0.670031 0.999673 0.554782 0.785745 0.776688 0.206723 0.456931 0.785043 1.00022 0.701438 0.659982 0.498678 0.779558 0.619441 0.87559 0.587371 0.437056 0.344746 0.760155 0.48329 0.837494 0.412664 0.566328 0.491542 0.512801 0.735658 0.498432 0.676428 0.543263 0.600241 0.802766 -1.17474 0.607839 0.566586 0.414499 0.251518 0.509423 0.688854 0.590458 0.654193 0.290948 0.716384 0.447895 0.421456 0.814986 0.247264 0.302858 0.249957 0.242091 0.35426 0.451692 0.46879 0.0842789 0.750629 0.29563 2.18455 0.253652 0.295506 0.431674 0.206815 -0.00745208 0.209125 0.999759 0.40138 0.482205 0.159547 0.0020042 -0.377571 0.290248 0.999684 0.523943 0.422491 -0.108453 0.416634 0.787822 0.277782 0.419274 0.619451 0.142188 0.735503 0.00142151 0.659584 -0.0113987 0.418013 0.442164 0.415657 0.502935 0.347477 0.963325 0.412487 0.32745 0.579372 -0.903958 0.398316 0.333145 0.201857 0.117719 0.376202 0.428399 0.404613 0.373157 0.0405389 0.427188 0.21319 0.176442 -0.0191564 0.0763514 0.0999291 0.0626235 0.0897691 0.132534 0.252317 0.194586 0.285879 0.109515 1.34434 0.390951 0.521698 0.573618 0.514913 0.257452 0.536118 0.999717 0.501925 0.676561 0.559615 0.157651 0.252941 0.646593 0.999807 0.665214 0.551557 0.458379 0.662742 0.505897 0.735459 0.454301 0.366424 0.266317 0.689437 0.348627 0.652196 0.35757 0.524135 0.406557 0.469331 0.627996 0.392745 0.555903 0.451883 0.521686 0.753089 -1.72631 0.588358 0.535281 0.398373 0.181799 0.445543 0.671859 0.529425 0.611394 0.201771 0.615889 0.384177 0.366684 0.568778 0.177836 0.233187 0.154453 0.162457 0.280418 0.43827 0.400129 -0.241392 1.08664 0.122214 0.517473 0.390321 0.224038 0.222599 0.34809 1.00019 0.540715 0.466053 0.631848 -0.00551201 -0.115071 0.405096 0.999704 0.531138 0.160077 0.47718 0.575981 0.262862 0.170455 0.210545 0.186992 0.0720228 0.722149 0.159506 0.544074 0.0495631 0.21564 0.413751 0.336443 0.483216 0.225488 0.485209 0.384178 0.381534 0.622097 -1.33141 0.351094 0.219089 0.289549 0.0523539 0.330478 0.357498 0.374079 0.388366 0.0054887 0.59431 0.200689 0.191367 -0.267488 0.0279644 0.0796999 0.0370298 0.0429258 0.103755 0.226711 0.138409 1.16866 0.28668 0.524811 0.456177 0.44983 0.226168 0.532951 0.999986 0.359103 0.614441 0.398614 0.13823 0.292407 0.52693 0.999892 0.650556 0.386701 0.454595 0.52987 0.464714 0.608219 0.332996 0.325748 0.226174 0.554024 0.412067 0.592848 0.311866 0.429984 0.347338 0.434917 0.59759 0.351691 0.515832 0.494883 0.505406 0.736524 -1.23524 0.501261 0.448815 0.44471 0.12888 0.385433 0.572136 0.494524 0.583085 0.191123 0.56622 0.338902 0.277802 0.531658 0.106211 0.189514 0.101945 0.0934865 0.20259 0.34366 0.306081 -0.0302018 0.772679 0.132093 0.153041 -0.180311 0.298421 0.99942 0.225223 0.380474 0.320584 -0.209981 -0.194385 0.172032 0.999421 0.384258 0.0441097 0.19108 0.189191 0.908935 0.262015 0.15404 -0.104355 -0.110702 0.281793 -0.0924556 0.684979 0.571447 0.0623854 -0.0534022 0.264416 0.301684 0.093348 0.857356 0.247788 0.1437 0.399221 -1.18631 0.217599 0.0237791 0.0553278 -0.133859 0.147141 0.178954 0.267332 0.250631 -0.0887784 0.324861 0.000698381 -0.0373456 -0.582044 -0.150781 -0.15962 -0.139325 -0.139401 -0.155215 0.0061051 -0.093208 1.1993 -0.121756 -0.314403 -0.186462 0.110218 0.999996 0.100647 0.452177 0.170287 -0.153869 0.181746 0.205391 0.999714 0.352518 0.0644505 0.608003 0.322035 0.274097 0.238263 0.639257 0.31139 -0.112411 0.123276 -0.164874 -0.00964529 -0.259264 0.0363228 -0.0995652 0.146474 0.975658 0.0534429 0.361358 0.364031 0.0275524 0.364261 -0.642201 0.091284 -0.174053 0.0171536 -0.161635 0.107136 0.0582545 0.321399 0.0941113 -0.178698 0.378275 -0.109102 -0.066875 -0.767941 -0.232945 -0.259003 -0.238998 -0.222823 -0.190731 -0.0739465 -0.139228 0.965425 -0.295687 -0.378018 -0.0165274 0.999605 -0.0906956 0.159226 -0.26287 -0.434599 -0.0566389 -0.16098 0.999989 0.272462 -0.302859 -0.00632762 0.291445 0.269712 -0.00733802 -0.0742421 -0.296714 0.253478 -0.754161 -0.772827 0.187662 -0.368023 -0.10637 -0.18982 0.120385 0.0271751 0.356379 -0.350904 0.214395 -0.903748 -0.417944 -0.785118 -0.131914 -0.321934 -0.109091 -0.271399 0.0980866 -0.109599 0.0856223 -0.0330029 -0.300424 -0.398225 0.192715 -0.145308 -0.941583 -0.311563 -0.321016 -0.325779 -0.272151 -0.298296 -0.156081 -0.220426 -0.0943991 -0.147652 0.0159354 1.00044 0.0321503 0.0715448 -0.0614441 -0.277161 0.111833 -0.0869367 1.00002 0.956678 0.07454 -0.643916 1.78179 0.0599123 0.213571 -0.439116 -0.133891 0.970938 0.00895957 -0.0690306 0.0656229 -0.207186 -0.184381 -0.217127 0.131212 0.0636753 0.219311 0.184298 0.0882465 0.531077 0.235732 -0.69824 0.0792085 -0.186079 0.134693 -0.258714 0.0450378 -0.0633502 0.494025 0.160041 -0.200131 0.260175 -0.0303855 -0.156671 -0.888932 -0.152951 -0.275142 -0.113468 -0.0665762 0.101501 -0.131191 -0.141223 0.05732 0.355055 1.00005 0.157672 0.298668 -0.911538 -0.302232 -0.0465412 -0.0757901 1 0.606673 -0.0554251 0.221103 -0.030957 0.0537968 -0.0387866 -0.194596 -0.246469 -0.217477 1.03353 0.172218 0.299469 -0.265868 -0.247807 -0.142313 0.0627424 0.109455 0.0989392 0.131872 0.534022 -0.295392 1.28972 -0.668763 0.0888368 -0.253641 0.0304153 -0.215442 0.0394267 -0.0685076 0.21838 0.144792 -0.0666154 0.222161 -0.168836 -0.146887 -0.680956 -0.285266 -0.315161 -0.280664 -0.0941083 -0.197375 -0.148622 -0.196999 0.26697 1.00019 0.326057 0.439699 0.289419 -0.224366 0.00570291 -0.340949 0.999711 0.455672 0.0928202 0.0113285 0.13412 0.129513 0.0803725 0.12075 0.109098 0.0238858 -0.89644 0.237061 0.419679 -1.28342 -0.0205681 -0.00875795 0.201526 0.173064 0.028596 0.24556 0.18016 0.113143 0.294994 -0.403497 0.196122 -0.0422214 0.2572 0.832352 0.154534 0.0177037 0.300028 0.247456 -0.0219076 0.366961 -0.0778526 -0.076092 -0.739564 -0.173136 -0.140714 -0.300228 -0.129941 -0.273048 -0.0845658 0.20886 1.00044 0.404627 0.12888 -0.302415 -0.397064 -0.0762167 -0.34341 0.999897 0.215953 -0.221234 -0.0463348 0.0737887 -0.0438599 -0.296301 -0.320783 -0.289717 -0.190048 0.113601 0.291557 -0.349255 -0.318211 0.550805 -0.138919 0.0866427 0.439598 -0.0796647 0.0129398 0.0701987 0.158804 0.254561 -0.7833 0.0809278 -0.265078 0.0283332 -0.289289 0.0718683 -0.168754 0.502717 0.0547244 -0.358602 -0.0265288 -0.167459 -0.1935 -1.13504 -0.363146 -0.372302 -0.343461 -0.328402 -0.300001 -0.112166 -0.187335 -0.999643 -1 -0.999966 -1.00018 -1.00019 -1.00004 0.229512 -0.999564 -0.999781 -1.00025 -1.00027 -1.0001 -1.00022 -1.00035 -0.999866 -0.99958 -0.999495 -0.999607 -0.999724 -1.00013 -1.42687 -0.999914 -1.00048 -1.00001 -1.00011 -0.999806 -0.999456 -0.99975 -0.999734 -0.999858 -0.999456 -1.00018 -0.999641 -0.999361 -0.99947 -1.00021 -0.999636 -0.999727 -0.999911 -0.999531 -0.999811 -0.999539 -1.00024 -1.00003 -1 -1.00014 -0.999934 -0.999774 -1.00022 -0.999778 -0.186524 0.398515 -0.419718 0.0792048 1.30862 0.999485 -0.575685 -0.0726759 -0.365018 0.00956922 0.0648688 -0.121089 -0.12018 0.499929 -0.0501661 0.0125849 -0.0196206 0.22981 -0.495024 -0.213747 0.607994 -0.221545 0.0162141 0.141111 0.0537897 -0.0311973 -0.149852 0.141263 -0.714568 -0.0801403 -0.173316 -0.0377709 -0.307587 0.00556123 -0.10438 -0.0842817 -0.0103965 -0.0775696 -0.0474959 -0.184924 -0.186446 -0.871841 -0.292416 -0.420465 -0.317663 -0.272879 -0.321246 -0.138925 -0.1938 0.1607 -1.42616 -0.242838 0.0729726 0.999668 -0.84214 -0.286376 -0.201149 -1.0558 -0.263133 -0.762832 -0.27771 -0.489172 -0.387478 -0.217071 -0.508406 -0.182574 -0.509662 -0.352155 -1.36768 -0.691975 -0.153723 -0.14468 -0.16343 -0.21147 -0.962512 -0.042936 -0.825026 -0.103884 -0.322884 0.0583958 -0.502826 -0.241471 -0.408915 -0.343085 -0.0983642 -0.392655 -0.0356343 -0.430491 -0.345308 -1.02704 -1.29117 -0.85016 -0.691064 -0.808806 -0.574117 -0.209406 -0.419275 -0.409134 0.0451584 0.029064 0.99981 -0.139928 -0.104891 0.221356 0.116471 0.0595081 -0.108952 -0.159223 -0.242321 0.359719 0.473368 -0.0779657 0.457057 -0.285594 -0.368065 -0.558813 0.909362 0.0546786 -0.0125559 0.0647737 0.0345195 0.243422 0.282079 -0.742022 -0.00522341 -0.215398 -0.0199309 -0.282679 0.191753 -0.0143747 -0.00639138 -0.0130119 -0.404297 -0.236155 -0.213196 0.00771511 -0.992434 -0.323579 -0.355146 -0.327283 -0.285365 -0.235549 -0.151416 -0.211259 0.224188 0.324533 0.999828 0.621516 0.337735 0.445964 0.564975 0.10235 -0.556658 0.171938 0.171952 0.146242 0.36955 0.424435 0.421664 0.255921 0.235211 0.288391 -0.590365 0.390974 0.221537 0.470068 0.39407 0.314909 0.470161 -0.312256 0.448455 0.182119 0.438062 0.0712689 0.318246 0.265737 0.478167 0.355116 0.134479 0.557066 0.292722 0.512119 -0.631154 -0.155096 0.367793 -0.274976 -0.0370015 -0.0686832 0.314485 0.194637 0.651348 0.999825 0.393533 -0.874639 -0.0925214 -0.0058065 0.275217 -0.296817 -0.145574 -0.427507 -0.0948108 0.373516 -0.0569744 0.253697 -0.298758 -0.240491 -0.171919 0.0350022 0.258796 0.111577 -0.577287 0.0721033 0.0459025 0.365303 -0.52256 -0.0179569 -0.375472 0.214231 -0.246002 0.0354171 -0.190036 0.20764 0.491658 -0.18705 0.30312 -0.195459 -0.28984 -1.14185 -0.407319 -0.462917 -0.338356 -0.3591 -0.360512 -0.260099 -0.370903 1.356 0.543144 -0.478148 0.0989528 0.0574637 0.0331261 0.0461363 -0.115546 -0.180731 -0.168376 0.329299 0.0337953 0.213602 -0.365542 -0.0989197 -0.231633 0.139999 1.97811 0.465675 0.569802 0.172715 -0.0714341 0.234457 -0.855772 0.030834 -0.198651 0.104561 -0.121297 0.113492 0.0371388 0.513907 0.163609 -0.235718 0.124208 -0.174259 -0.0630973 -1.57822 -0.326199 -0.268059 -0.278389 -0.264094 -0.256469 -0.107333 -0.126618 -0.999658 -0.999808 -0.99988 -0.999886 -0.999633 -0.999807 -0.999647 -1.00023 -0.999868 -1.00041 -0.999884 -0.999564 -0.999948 -1.00003 -0.999939 -1.00025 -0.999901 -1.00013 -0.999701 -0.999678 -0.999456 -1.00033 -1.00034 -0.999653 -1.00003 -0.999847 -1.00009 -0.999502 -0.999483 -0.999749 -0.999759 -1.00032 -0.999635 -1.00028 -1.00044 -1.00001 -0.99996 -1.0001 -1.00023 -1.00054 -0.999899 -0.999507 -0.999426 -0.403314 -0.35535 -0.576119 -0.34539 -0.399434 -0.405865 -0.444514 -0.599792 -0.253564 -0.34933 -0.0894931 -0.574162 -0.330551 -1.06794 -0.273513 0.0981674 -1.24413 -0.307298 -0.272023 -0.403209 -0.103878 -0.769517 -0.133684 -0.482239 -0.0838452 -0.529258 -0.205791 -0.270255 0.376458 -0.142752 -0.486795 -0.280178 -0.506642 -0.333269 -1.14353 -0.93109 -0.73736 -0.803243 -0.405525 -0.515265 -0.356509 -0.457188 0.338494 0.031026 0.359043 -0.603418 -0.11508 -0.432176 -0.303063 0.247409 0.0904639 0.382056 -0.26672 0.197942 -0.155585 0.0913258 0.272775 -0.0419431 -0.512462 0.434882 -0.170668 0.374893 -0.666847 0.129787 -0.0881661 -0.036043 -0.22815 0.472063 0.494985 0.377418 0.173979 -0.180076 0.5899 0.151917 -0.113308 -1.01837 -0.0819004 -0.0830996 -0.208347 -0.0611395 -0.19599 -0.0591656 -0.138048 0.414796 0.00841854 -0.181211 -0.0767362 -0.247371 -0.14993 -0.897432 -0.316949 0.165729 -0.268477 -0.166423 0.315184 0.244196 0.141664 -0.0379346 0.280093 0.0836202 -1.06434 -0.302802 -0.592901 -0.0814958 -0.304835 0.0299873 0.472098 0.0721494 -0.0709149 0.0770361 0.0237036 -0.380466 -0.623711 -0.21158 -0.138039 -0.850908 -0.328265 -0.297598 -0.34009 -0.276276 -0.297849 -0.154388 -0.202216 0.425222 0.90932 -0.175739 -0.264728 -0.0825419 0.075154 -0.0996503 0.14003 -0.412151 -0.164028 -0.00509657 0.101403 0.0851786 -0.116383 0.249898 0.0433402 1.05614 0.23199 -0.792343 0.0184036 -0.225302 0.173002 -0.170637 0.0769742 -0.14518 0.183199 0.212584 -0.241493 0.186033 -0.104671 -0.134661 -0.902286 -0.22323 -0.341024 0.00777057 -0.240139 -0.208712 -0.0725764 -0.181036 1.63421 -0.166938 -0.217122 -0.158685 0.00278874 -0.0338305 0.206282 0.165525 0.0629289 -0.07334 0.500572 0.21394 -0.0970626 0.00592734 0.20326 -0.143201 0.130605 -0.64736 0.0562553 -0.240674 0.0573252 -0.212728 0.594283 -0.0771768 0.194032 0.19362 -0.118099 0.189392 -0.111765 -0.126494 -0.832465 -0.269601 -0.209308 -0.287158 -0.260854 -0.201839 -0.120734 -0.174354 -0.142484 -0.319647 -0.302475 0.15487 0.0829401 0.131355 -0.289444 -0.0583069 -0.125977 0.366924 0.287372 -0.048438 1.23124 0.515397 -0.439638 0.935473 -0.793871 0.169704 -0.0924832 -0.0478725 -0.188289 0.183192 0.132104 0.22378 0.140824 -0.0534919 0.311881 -0.0744265 -0.0780938 -1.01173 -0.100282 -0.19442 -0.0183826 -0.072395 -0.192141 -0.0144522 -0.154606 1.17033 0.135747 0.0247517 -0.280144 -0.116752 -0.261441 -0.00255249 -0.0269387 0.174245 0.45648 0.0523618 0.169826 0.171665 0.0865426 0.356777 -0.646673 0.26598 0.212734 0.204333 -0.132721 0.176332 -0.0170167 0.537311 0.286827 -0.0476974 0.241563 -0.0644964 -0.028704 -0.947905 -0.16843 -0.0428363 -0.100658 -0.1313 -0.0512296 0.0084768 -0.0535312 -0.0367284 0.262769 0.0332316 0.530286 -0.0812983 0.154436 0.127278 0.382595 0.685313 0.15644 0.599371 0.380619 0.554898 0.412142 -0.535788 0.786319 -0.0113093 0.264968 -0.0454619 0.288649 -0.05678 0.748557 0.290669 0.0298705 0.753848 0.0476108 -0.0842147 -1.07144 -0.123349 -0.126972 0.63515 -0.0289145 0.485657 -0.0813469 -0.133619 0.190395 0.160798 0.364015 -0.149456 0.101659 0.042715 0.306259 0.355134 0.118483 0.350424 0.255762 -0.415951 0.460294 -0.426766 0.779059 0.220998 0.961353 -0.0961151 0.190869 0.0256317 0.522894 0.872903 -0.011435 0.364132 0.00769428 0.236348 -0.874097 -0.130922 -0.174941 0.149088 0.148038 -0.143903 -0.0856696 -0.142611 -0.264667 -0.202488 -0.778254 -0.679599 -0.324885 -0.579983 0.0596177 -0.117754 -0.0636358 0.0394696 -0.722428 -0.54557 -0.922698 0.0425726 -0.359776 0.01932 -0.101985 0.0212074 -0.111215 0.115947 0.232576 0.247968 0.532921 -0.259371 -0.139341 -0.921693 -0.315006 -0.337187 -0.351612 -0.195478 0.00899089 -0.11803 -0.122155 0.943588 -0.0666762 -0.105403 -0.105007 0.0846994 0.460398 -0.0351996 0.0238759 0.433541 -0.0313836 0.422743 -0.695637 -0.015608 -0.306573 -0.0666422 -0.259977 0.101284 -0.0964572 0.178645 -0.00421335 -0.283864 0.261592 -0.173003 -0.137322 -0.581064 -0.153214 -0.357921 -0.300805 -0.265365 -0.273322 -0.143084 -0.216304 0.110793 -0.446389 -0.366201 -0.15148 -0.158113 -0.288307 -0.119345 -0.643792 -0.279293 -0.0702332 -0.854723 -0.175911 -0.347051 -0.170678 -0.456126 0.0484385 -0.205283 -0.292635 -0.0637963 -0.437432 0.62169 -0.377032 -0.331872 -0.924828 -0.105008 -0.503486 -0.404695 -0.441784 0.00596186 -0.257837 -0.0755117 0.0244084 0.152185 0.292069 0.35602 0.125774 0.370331 0.2977 0.340901 0.547694 -0.483817 0.340774 0.0812593 0.335452 0.00501262 0.815953 0.13684 0.442951 0.377726 0.00547264 0.753652 0.107264 -0.0382188 -0.978612 -0.0876147 -0.0970542 -0.13553 -0.0127046 0.720104 -0.0626978 0.0710866 -0.167036 1.45792 0.160205 0.0145886 -0.235441 0.110934 -0.00445924 0.301857 -0.690988 0.520331 -0.227034 1.43239 -0.214859 0.204752 0.0624046 0.226014 1.19314 -0.0138951 0.279281 0.138957 1.34178 -0.913602 -0.255886 -0.234823 -0.198095 -0.247462 0.062954 0.0428983 -0.177253 -0.0203488 0.38809 2.40153 0.315824 0.17285 0.0717865 0.251654 -0.649179 0.856014 0.0629053 0.188269 -0.134771 0.377035 0.198807 0.264194 0.248642 -0.047208 0.30716 -0.0332156 -0.0134043 -0.87277 0.296898 -0.175208 -0.161749 -0.157098 -0.109254 0.168395 0.0473477 0.0104905 -0.232356 0.0113834 0.0141289 -0.117671 0.122666 -0.623568 0.128746 -0.156101 0.449515 -0.329832 0.00310747 -0.0751371 0.054673 0.302018 -0.253371 0.108975 -0.173248 -0.199713 -1.00451 -0.297051 -0.159051 -0.26438 -0.260893 -0.184204 -0.180054 -0.268862 0.228623 -0.154296 0.512957 -0.486191 -0.22022 -0.808119 -0.136448 -0.278077 -0.0251166 0.16926 -0.0431696 -0.270588 0.473355 0.0384487 -0.321618 -0.189237 -0.246893 -0.294208 -1.22365 -0.390343 -0.433739 -0.211369 -0.36462 -0.353951 -0.251684 -0.298759 0.135666 0.0448877 -0.05423 0.233164 -0.630597 0.141401 -0.0138728 0.123622 -0.156903 0.819448 0.0257007 -0.0341267 0.219224 -0.107659 0.30408 -0.114975 -0.11203 -0.886893 -0.227829 -0.231417 -0.221823 0.402834 -0.18397 0.121197 -0.102668 0.332661 -0.207688 0.145592 -0.62772 0.346946 -0.337129 -0.0581758 -0.333962 -0.0146303 -0.164038 0.0803301 0.088524 -0.295248 0.172705 -0.218661 -0.229082 -1.09924 -0.376776 -0.389009 -0.368621 -0.359007 -0.376441 -0.273651 -0.282814 -0.775787 1.37263 -0.602353 0.348722 0.52005 0.0617637 -0.320292 -0.00934693 -0.248695 0.242744 0.131408 -0.241413 0.9792 1.07864 -0.221428 -1.09045 -0.306935 -0.141108 -0.414798 -0.31734 -0.0114022 -0.22404 -0.261047 1.32646 -0.626007 0.118164 -0.170298 0.861766 -0.193153 0.127997 -0.054825 0.319439 0.699176 -0.160934 0.516012 -0.0120035 -0.14615 -1.07812 0.989068 -0.235843 -0.172846 -0.104054 -0.20157 0.0084238 -0.288565 -0.818831 -0.211119 -0.500051 -0.0865358 -0.424996 -0.00187968 -0.457271 -0.157376 -0.170567 0.0931668 0.816647 -0.426397 -0.454556 -1.28797 -0.479409 -0.613507 -0.454104 -0.474582 -0.435852 -0.378862 -0.498652 0.631974 0.507443 0.477492 0.364243 0.575195 0.606565 0.654527 0.645452 0.431853 0.811847 0.4572 0.446281 0.361735 0.324239 0.342669 0.326771 0.334308 0.354369 0.420406 0.38503 -0.0947062 -0.322471 -0.386018 0.0715511 -0.287599 -0.349697 0.304974 -0.15877 0.342932 -0.292992 -0.0697462 -1.16782 -0.419704 -0.56186 -0.353248 -0.350733 -0.511687 -0.673186 -0.477279 0.538172 -0.135821 0.185869 0.172459 -0.267165 0.691544 0.11121 0.537992 0.181784 -0.0150248 -0.970343 0.0434583 -0.176008 -0.216385 -0.0926301 -0.234915 0.0646508 -0.0938415 -0.397219 -0.105376 -1.28832 -0.0115578 -2.18838 -0.26203 0.110117 -0.417031 -1.17569 -0.560812 -0.452493 -0.561483 -0.362363 -0.443647 -0.430592 -0.0205212 -0.91263 0.28821 -0.0693859 0.399801 0.320739 0.092304 0.39454 0.215182 0.104473 -1.19852 -0.0225863 0.087039 -0.27866 -0.00606997 -0.288998 0.0235351 -0.00836237 -0.083045 0.0281978 0.136438 -0.206695 0.207758 -0.166358 -0.21584 -0.921134 -0.291156 -0.265989 -0.385015 -0.265487 -0.418792 -0.324019 -0.288291 0.302454 1.31431 -0.0157113 0.493048 0.40095 -0.315658 -0.787822 -0.167694 -0.270596 0.00252129 -0.34965 0.217316 -0.127313 -0.425788 0.0382869 -0.298881 -1.13469 -0.367843 -0.350344 -1.22066 -0.586775 -0.634585 0.0127411 -0.647269 -0.374346 -0.330742 -0.385261 0.262716 0.388777 -0.282889 -1.60589 -1.22854 -0.215378 -0.654786 -0.381121 -0.439052 -0.233849 -0.21946 -1.60562 1.84197 -0.0355679 -0.203247 -0.833776 -0.179628 -0.334048 -0.0914197 -0.178481 0.218007 -0.0238034 0.955308 -0.452322 -0.470105 -1.27203 -0.581598 -0.722069 -0.117058 -0.546399 0.0614952 -0.435364 -0.613906 -0.0309522 -1.64863 -0.223626 1.44338 -0.569372 -0.228959 -0.246454 0.00870201 -0.0720014 -0.686611 -0.195419 -0.375433 -0.091221 -0.17987 -0.0793121 -0.015229 -0.376916 0.972563 -0.0907717 0.408949 0.789058 0.733724 0.565679 0.968066 0.0541285 -0.0924915 0.266995 0.147487 0.127221 0.0824538 -0.400932 0.15184 0.0884664 0.162556 0.18688 -0.019663 0.17639 0.166496 0.0768906 0.0533382 0.109046 0.0897901 0.170022 -0.157442 -0.177416
label 13 25 12 24 15 27 14 26 16 28 6 18 30 5 17 29 8 20 7 19 31 9 21 11 23 10 22 37 36 48 39 63 40 64 42 66 41 65 32 44 43 67 45 35 47 34 46 49 61 60 51 38 50 62 52 54 53 56 55 33 57 59 58 4 73 85 72 75 74 86 68 71 70 69 76 84 87 78 77 80 79 81 83 82
nr_sv 8 22 10 24 14 21 11 20 13 24 12 15 27 14 12 26 9 18 9 25 28 10 18 8 20 9 20 29 28 29 23 32 32 20 23 28 29 25 25 29 32 41 37 34 24 23 31 26 27 28 28 28 23 27 30 26 29 25 20 22 30 25 28 4 27 14 24 13 13 21 21 20 14 21 13 8 12 14 18 9 10 8 10 11
SV
0 0.4042573353816379 0 0 0 0 0 0.472283621410364 0 0 0.3574448371828389 0 0.1982632606535069 0 0 0.1270668002306022 0 0.1140814345120425 0.2362617676515049 0 1.012332728688091 0 0.6355218470404914 0 0 0 0 0 0 0 0 0 0 0 0 0 0 0 0 0 0 0 0 0 0 0.2642710369565671 0 0 0 0 0 0 0 0 0 0 0 0 0 0 0 0 0.06566057069224117 0 0 0 0 0 0 0 0 0 0 0 0 0 0 0 0 0 0 0 0 1:0.0093511302 2:0.0072575876 3:0.0042988777 4:0.0041946034 5:0.0042360274 6:0.024916148 7:0.022409904 8:0.020499607 9:0.03384986 10:0.12117465 11:0.025634014 12:0.0049957652 13:0.045048431 14:0.014672559 15:0.0092351887 16:0.065200551 17:0.0095116632 18:0.075842098 19:0.016818329 20:0.16784792 21:0.07399562 22:0.18965444 23:0.012554994 24:0.067371534 25:0.081896725 26:0.013275786 27:0.092402996 28:0.32877071 29:0.091197568 30:0.027439105 31:0.037272755 32:0.042285886 33:0.41394073 34:0.054971497 35:0.050716276 36:0.092381764 37:0.32090132 38:0.097780225 39:0.23149129 40:0.38034836 41:0.21355408 42:0.22397979 43:0.72923746 44:0.084201792 45:0.62180674 46:0.11157495 47:0.68183517 48:0.21982084 49:0.67267099 50:0.25299932 51:0.44294161 52:0.7529105 53:0.41920011 54:0.84883048 55:1 56:0.91752517 57:0.77847629 58:0.6607365 59:0.72203326 60:0.73159152 61:0.72645799 62:0.72719241 63:0.8081319 64:0.75003105 65:0.6913237 66:0.93004498 67:0.9656013 68:0.81951937 69:0.72451766 70:0.62696156 71:0.58811175 72:0.63493043 73:0.68382008 74:0.5373309 75:0.63805086 76:0.51783183 77:0.52952791 78:0.53238535 79:0.52330128 80:0.50611389 81:0.49990907 82:0.49868334 
0.1711053200616233 0.3773789856061574 0.1412833178657668 0.7184057993302399 0.006073366692883724 0 0.3171048862309699 0.3774459014362354 0 0 0 0.1259705473615853 0.02488153129076225 0.3692836889192019 0.0009252244183730419 0.3599408135923222 0.463754348353349 0.2884767931717019 0.1913024799911407 0.1077563394460201 0.4474785648373083 0.3658454200821754 1.043836229203044 0.1887757119572397 0.5932848176023963 0.1971780278251635 0.18728549769817 0.1285990764443469 0.01668869838899952 0.01657615090055131 0.146622470636461 0.0294466667221525 0.01564172704503143 0.05813910653141775 0.08375549102658951 0.0723995670669306 0.1872711719119719 0.3816083259209575 0.1114919390085005 0.07373720551808351 0.1331140107043329 0.1580434067603684 0.07332352911145457 0 0.1003065370114892 0 0 0.1714720737428389 0.1702263553578697 0 0.1142074246440292 0 0.2583123740833156 0.23910117767999 0.02080548427923085 0.1279654911311102 0.02570921498689374 0.01097247505288133 0.1377226713864954 0.1294985249447093 0.1613324271740275 0.0856179897682032 0 0.2250879308479607 0.5183454357246292 0.2316725685094281 0.07740375129632367 0.129830497963487 0.6207078230417686 0.09086349756016741 0.1974991178925252 0.05317476397619159 0.1177519926617454 0.2004044973553026 0.2761433435960316 0.8063635521106367 0.2085655326849108 0.2811688646235529 0.2646606566658354 0.2026871908714533 0.3070490527408607 0.4177075932755752 0.347149519248075 1:0.010247611 2:0.0062688891 3:0.0022365271 4:0.0011306384 5:0.0035967891 6:0.031721115 7:0.02160711 8:0.014633158 9:0.020818152 10:0.075617743 11:0.02063306 12:0.0097762476 13:0.0071293925 14:0.0083192899 15:0.010966891 16:0.018073783 17:0.0098398391 18:0.040531274 19:0.011597216 20:0.16013625 21:0.051129327 22:0.13601193 23:0.0095728228 24:0.046900886 25:0.026890146 26:0.0098007428 27:0.019194492 28:0.23538653 29:0.082817684 30:0.068855137 31:0.061331187 32:0.1059828 33:0.25574199 34:0.01264863 35:0.044158777 36:0.12752118 37:0.22954825 38:0.020292418 39:0.060501105 40:0.33642541 41:0.12665768 42:0.093971319 43:0.49506881 44:0.13732396 45:0.55544166 46:0.10382749 47:0.55757058 48:0.1171165 49:0.43714645 50:0.22736706 51:0.32921931 52:0.72071297 53:0.5928949 54:0.42380025 55:0.6531324 56:0.6839547 57:0.62587752 58:0.58315804 59:0.55153625 60:0.55787459 61:0.51196771 62:0.59765965 63:0.69686523 64:0.39268183 65:0.65884637 66:0.66271456 67:1 68:0.85505773 69:0.79992183 70:0.73693616 71:0.69267678 72:0.70032225 73:0.73750293 74:0.62965499 75:0.73120981 76:0.6099934 77:0.65034413 78:0.68170325 79:0.69559163 80:0.73632327 81:0.67851919 82:0.6480362 
0.1057486094675188 0.0560716816854665 0.2085513356657916 0.5908308804681319 0.3883760036294592 0.7103987691958751 0.4740701259912219 0.2266436793859493 0.8961468579505584 0.7558527128640117 0.3762280741839383 0.3756193338059244 0.7408973390320778 0.5782159250633279 0.6635836069853475 0.5911333219537492 0.788983938365304 1.106544372781087 0.3848901230026272 0.3005593910220318 0.5098433062664165 0.4647634481755094 0.4849317123366839 0.4218780591247645 0.398871020764938 0.4527187794293025 0.4239824078134293 0.3271766015010321 0.3907043218176766 0.3709336386096782 0.227347846802959 0.3968820678404238 0.2144550810528549 0.4102680027724721 0.3718774615342676 0.499666863186202 0.117756245543935 0.4688767172374996 0.4753980676594609 0.2962192576778088 0.3500039365476043 0.2625604106711243 0.3639505323113774 0.381404602953631 0.3013264686706581 0.4510353561994104 0.368481586875582 0.27806336508879 0.1371252761070333 0.4116328550483734 0.3487931122431721 0.4788818539652878 0.2151313663835016 0.2011152548748304 0.3161583356159533 0.1991150849612158 0.2615914489432241 0.2283511666652846 0.2638057344305572 0.1119723743883718 0.2060447965701765 0.2733879090660119 0.9701319384655449 0.0789258242013219 0 0.2179253603785237 0.009515629933376305 0 0 0.1593822975765677 0.1575907553008598 0.1814488179169746 0.360157897410211 0.07085718319353511 0.01912253369323482 0.5302309008880743 0.02920448137385206 0.07828021647310658 0.001517762439244472 0 0 0 0 1:0.00059897636 2:0.00051508132 3:0.00028743695 4:0.00022531749 5:0.00014244871 6:0.0028712719 7:0.0026880037 8:0.0024818567 9:0.0043668321 10:0.017441624 11:0.0046147261 12:0.0015421865 13:0.0042448196 14:0.0021767581 15:0.0016178199 16:0.0069752818 17:0.0019158929 18:0.019975633 19:0.0037446989 20:0.073704502 21:0.03389407 22:0.10954271 23:0.0060461117 24:0.033333797 25:0.025068034 26:0.0042196283 27:0.014497428 28:0.15827073 29:0.099242096 30:0.054817416 31:0.064368954 32:0.059350919 33:0.21681629 34:0.060831798 35:0.059590824 36:0.1944848 37:0.46285365 38:0.023689901 39:0.18063547 40:0.59096496 41:0.38493606 42:0.14353082 43:0.9238778 44:0.37238394 45:0.82411332 46:0.24237355 47:1 48:0.1843932 49:0.84074056 50:0.26297336 51:0.65736659 52:0.62284266 53:0.39264113 54:0.4135412 55:0.58415783 56:0.49800338 57:0.56940896 58:0.60490754 59:0.46615789 60:0.42695029 61:0.40209191 62:0.432646 63:0.51748082 64:0.54281205 65:0.44398905 66:0.68387791 67:0.57780596 68:0.25481395 69:0.21194368 70:0.22290065 71:0.24181352 72:0.22751212 73:0.15807612 74:0.14354705 75:0.092550123 76:0.052118121 77:0.046511633 78:0.020102648 79:0.00952193 80:0.016827661 81:0.011694108 82:0.0046036949 
6.238079251463137 0 0.001077982447118187 0 0 0.6049789708028304 1.326330265467993 0 2.272860584407526 0 0 0 0 0 0 0 0 0 0 0 0 0 0 0 0 0 0 0 0 0 0 0 0 0 0 0 0 0 0 0 0 0 0 0 0 0 0 0 0 0 0 0 0 0 0 0 0 0 0 0 0 0 0 0 0 0 0 0 0 0 0 0 0 0 0 0 0 0 0 0 0 0 0 1:0.01055845 2:0.0062814068 3:0.0022474982 4:0.0013724982 5:0.00327032 6:0.026366939 7:0.018078152 8:0.013293806 9:0.021645142 10:0.090200148 11:0.028138229 12:0.020848246 13:0.079012027 14:0.024663102 15:0.030808931 16:0.14224247 17:0.032002586 18:0.23713579 19:0.065720763 20:1 21:0.35193641 22:0.77180713 23:0.050882318 24:0.2506387 25:0.17226931 26:0.020265446 27:0.14351764 28:0.36481539 29:0.058131852 30:0.024902551 31:0.036045735 32:0.031043223 33:0.1074327 34:0.016542426 35:0.01455658 36:0.045983952 37:0.086968582 38:0.023294014 39:0.046474444 40:0.079993618 41:0.030299643 42:0.029889172 43:0.1744133 44:0.05350971 45:0.092611172 46:0.046788516 47:0.056751655 48:0.032499661 49:0.10945111 50:0.032683834 51:0.13254329 52:0.055089316 53:0.058313193 54:0.05412018 55:0.061890298 56:0.044420862 57:0.039746224 58:0.039555204 59:0.052150288 60:0.039800272 61:0.050971883 62:0.088406803 63:0.067386615 64:0.043271054 65:0.033325469 66:0.019964155 67:0.020540833 68:0.018892402 69:0.025574104 70:0.012945144 71:0.012078778 72:0.0099371218 73:0.0063089873 74:0.0085266503 75:0.0054246725 76:0.0062329116 77:0.007030725 78:0.0064632074 79:0.0033463006 80:0.0021087606 81:0.0015039675 82:0.00077629769 
0 0 0 0 0 7.480919151266031 0 0 0 0 0 0 0 0 0 0 0 0 0 0 0 0 0 0 0 0 0 0 0 0 0 0 0 0 0 0 0 0 0 0 0 0 0 0 0 0 0 0 0 0 0 0 0 0 0 0 0 0 0 0 0 0 0 0 0 0 0 0 0 0 0 0 0 0 0 0 0 0 0 0 0 0 0 1:0.0076286445 2:0.0058156961 3:0.0043702008 4:0.0052521464 5:0.006667218 6:0.033829258 7:0.030932506 8:0.031996507 9:0.059789619 10:0.24125608 11:0.059428353 12:0.012789118 13:0.085175106 14:0.032692756 15:0.016726043 16:0.14236237 17:0.017022238 18:0.24161714 19:0.051020315 20:1 21:0.40004807 22:0.91973141 23:0.053729375 24:0.27751309 25:0.17816646 26:0.027029691 27:0.14715393 28:0.46595348 29:0.16666438 30:0.086203881 31:0.073760797 32:0.072605608 33:0.078850569 34:0.047761517 35:0.048706544 36:0.087774816 37:0.16132147 38:0.043299263 39:0.067908408 40:0.11874615 41:0.047558206 42:0.041467789 43:0.13624123 44:0.034357133 45:0.067588769 46:0.036407677 47:0.076460326 48:0.046206272 49:0.11214887 50:0.081195829 51:0.095268402 52:0.050133154 53:0.031579254 54:0.068459782 55:0.07923436 56:0.044828674 57:0.053980668 58:0.038721469 59:0.042375412 60:0.037250471 61:0.048181548 62:0.063171586 63:0.057054597 64:0.052074856 65:0.036454242 66:0.029090549 67:0.020350413 68:0.014598391 69:0.03791829 70:0.016130075 71:0.015169208 72:0.01167066 73:0.0087171178 74:0.0084835317 75:0.0096054996 76:0.0096415803 77:0.0099345461 78:0.0074888069 79:0.0053269277 80:0.0029845967 81:0.002429894 82:0.0023922573 
2.049840232870815 2.496784564010367 10 0.1887664695326425 4.125995676814569 0 0.1840101656191797 0 5.242448500448014 0.812955867128295 0.8576247014063587 1.084172685291348 0.9352242494452143 0.7463235073509213 0.4888278637047488 0.4341983988932285 1.269335630721754 0.1848836423460625 0.9783080230523148 0.9885970927799724 0.3194506387604463 0.8197932146285941 0.751671502783938 1.415968827619933 0.4539875771750813 1.190408262282156 1.087362786022344 1.036032611960957 0.9846809536659223 0.9199141901530513 0.8071693068837338 0.9932587037336746 1.259436406522663 0.9526897562040988 1.067135110447806 0.9957643719299473 0.7840279728792085 0.9128857500538746 1.115070077177728 1.290684345502679 1.07577450921692 0.8503530959573398 1.017421333865074 1.060359290827461 0.9362176508604728 1.009811259763743 0.9789812496521885 0.946505733649616 0.8516435433637601 1.093178032899893 0.9328638301190453 1.064019268283311 0.8725621382133451 0.9327495136871282 0.9172248373567328 0.995452714579958 1.02691602800402 0.8924108857525099 1.046682591339657 0.9217705611961139 0.9114178838235626 1.060464778361266 0.3673312490524524 1.138313244634042 0.9368526580067756 0.9055610649342779 0.7989216157341751 0.9268192991101815 1.039054338573362 0.9854776012282832 0.9916301391964407 0.786689795712475 1.030574907942882 0.8659044388412803 0.8696612966122472 0.8979161651564692 0.7447712824268934 0.7963343908773225 0.7634883008452781 0.7452927091550192 0.8390837174290996 0.9028429795603489 0.879114433042208 1:0.01214176 2:0.006447013 3:0.001490394 4:0.00095582716 5:0.0054149904 6:0.035839075 7:0.021811516 8:0.014320051 9:0.023006572 10:0.094813331 11:0.026823404 12:0.010805918 13:0.030397317 14:0.020770486 15:0.024695686 16:0.064999443 17:0.028441453 18:0.13161265 19:0.081538687 20:1 21:0.2749074 22:0.20600711 23:0.0430495 24:0.051821152 25:0.023461931 26:0.020558244 27:0.068188345 28:0.30643506 29:0.083819043 30:0.06081491 31:0.034081581 32:0.09472476 33:0.036373467 34:0.01159982 35:0.0080331904 36:0.043669194 37:0.066319592 38:0.0052900094 39:0.087785608 40:0.07024844 41:0.029659076 42:0.016585083 43:0.01635502 44:0.048838863 45:0.074158107 46:0.032411103 47:0.044055248 48:0.027822787 49:0.047931369 50:0.091315566 51:0.030409475 52:0.05138094 53:0.02941888 54:0.027758158 55:0.026293243 56:0.064146798 57:0.043938903 58:0.056883786 59:0.033022997 60:0.042481952 61:0.063646291 62:0.051289109 63:0.030766808 64:0.050206464 65:0.012293683 66:0.028256872 67:0.021759751 68:0.0080659483 69:0.018679219 70:0.0079362319 71:0.0097219518 72:0.0075778286 73:0.0094071869 74:0.0079341649 75:0.0042192178 76:0.0041773806 77:0.0047275148 78:0.0045963171 79:0.0036812105 80:0.0024467993 81:0.0012600349 82:0.00158955 
3.770034129379218 0 0 0.4463710729410559 0 0 3.568558386799746 1.049789508113513 0 0.6602668597245043 0 0 0 0.4973876799794471 1.791845955662331 0 0.01884158094369222 0 0 0 0 0.2208972019157492 0 0 0 0 0 0 0 0 0 0 0 0 0 0 0 1.162536866486053 0 0 0 0 0 0 0 0 0 0 0 0 0 0 0 0 0 0 0 0 0.2998309745839056 0 0 0 0 0 0 0 0 0 0 0 0 0 0 0 0 0 0 0 0 0 0 0 0 1:0.0098978043 2:0.0066743065 3:0.002725866 4:0.0012912605 5:0.0026910563 6:0.033940262 7:0.02598519 8:0.02085414 9:0.03652844 10:0.16830708 11:0.058945172 12:0.041527192 13:0.098741361 14:0.025150041 15:0.035882824 16:0.10100278 17:0.055014534 18:0.53974943 19:0.11565365 20:0.68777663 21:0.34680553 22:1 23:0.064651622 24:0.25585989 25:0.20841422 26:0.027294243 27:0.13123485 28:0.37602292 29:0.24913823 30:0.23776506 31:0.025620358 32:0.051979546 33:0.11469767 34:0.076447403 35:0.061467291 36:0.090143456 37:0.06304163 38:0.035413519 39:0.11355234 40:0.16990974 41:0.050816012 42:0.032064996 43:0.085022805 44:0.055035095 45:0.035058395 46:0.03844786 47:0.033746304 48:0.029406345 49:0.044243749 50:0.051196635 51:0.058740765 52:0.033996572 53:0.030906718 54:0.037888849 55:0.030644952 56:0.033068257 57:0.019627181 58:0.03051143 59:0.025684942 60:0.025378443 61:0.021833357 62:0.01488087 63:0.010006752 64:0.0029847272 65:0.0048901245 66:0.0054726879 67:0.0038718758 68:0.0034522378 69:0.0034770821 70:0.0028036789 71:0.0031705595 72:0.0027151277 73:0.0038787412 74:0.0024833334 75:0.0024548583 76:0.0025906134 77:0.0030615823 78:0.0022909851 79:0.0025687951 80:0.0035853877 81:0.0025891391 82:0.0025266858 
6.830375690398083 2.29530028936456 0.5327918076321482 2.010208023646424 4.15680677483132 2.379769015035116 8.978959781099325 0.3930031333771986 3.745270508395156 0 0.4654591879579326 0.4244913990830206 0.2276647206755413 0.5065675111346366 2.693418812300847 0.5056033544122052 0.4658140243147702 2.165625747455379 0.4315448401363911 0.3436288714698328 0.7404638847456844 0.609818432259602 0.8862346506964234 1.31475958238401 0.7665570713199149 1.020716890762553 0.2874670004052796 0.4137683540240957 0.161759498407741 0.2940849090516371 0.09895045654033752 0.3847579665921418 0.2131949605983049 0.5160327339035375 0.2167249918760335 0.5134613256403308 0.05645703202022225 0.2278510624354888 0.2878804022525318 0.3973889695314034 0.1743112146029711 0.3887927974404725 0.3709324452094569 0.3407061340962862 0.2901523047547521 0.5441007705339601 0.09592076211620447 0.1412196439069806 0.1201069624335483 0.2038875158489414 0.4521692827141212 0.235356668452207 0.1012934789683002 0.1101822003193774 0.08774658571870835 0.09818029790684177 0.1441926664422364 0.1119585062041757 0.08599389362136173 0.125177289996369 0.2292209751227936 0.2969408600043236 0.8824079196674856 0.2165652828516128 0.1441260613138927 0.202790073828867 0.1514540595069589 0.1203603534886303 0.09591237054387178 0.1227391494666173 0.1388744417071629 0.1254263945392646 0.3119255499892899 0.09121770588697531 0.09376377063376351 0.3097143898188147 0.06629154538242996 0.1014156220743436 0.06992059579028472 0.07125089890603392 0.08107147617487787 0.0895773711562671 0.0892624438359016 1:0.0072352198 2:0.0056224197 3:0.0047298678 4:0.0059178473 5:0.0077811309 6:0.039197781 7:0.035372913 8:0.036933534 9:0.070751893 10:0.29820133 11:0.081245283 12:0.027216967 13:0.022834384 14:0.011500697 15:0.020383799 16:0.11238768 17:0.04770647 18:0.62595092 19:0.18646308 20:0.56587754 21:0.31250114 22:1 23:0.061614905 24:0.19647197 25:0.11076373 26:0.010279437 27:0.064834686 28:0.26900483 29:0.16613596 30:0.15235148 31:0.04789843 32:0.10600593 33:0.07372961 34:0.13881814 35:0.095337047 36:0.058238162 37:0.21089597 38:0.13093101 39:0.12658418 40:0.11716325 41:0.055315432 42:0.048077247 43:0.10438169 44:0.050437931 45:0.034726295 46:0.066334147 47:0.026742486 48:0.037397374 49:0.037802796 50:0.059207678 51:0.065010894 52:0.056029496 53:0.042365734 54:0.032452437 55:0.047242264 56:0.03937985 57:0.026711844 58:0.023080005 59:0.020033716 60:0.019411504 61:0.015567665 62:0.012391687 63:0.0074263294 64:0.0036204253 65:0.0040492011 66:0.00426681 67:0.0028182414 68:0.0060245538 69:0.0042740844 70:0.0048378036 71:0.0040129621 72:0.0031029246 73:0.0033830676 74:0.0033892931 75:0.0026984043 76:0.0028037934 77:0.0033049433 78:0.0032267649 79:0.0035065915 80:0.0027314416 81:0.0053563322 82:0.0059291975 
-0 0 0 0 0 0 0 0.08750589129266816 0 0.1667984255510764 0.1438811533565677 0 0.2099964251481394 0.05960074363125881 0 0.05754631780732288 0 0 0 0 0 0.3713175848568109 0 0 0 0 0 0 0 0 0 0 0 0 0 0 0 0 0 0 0 0 0 0 0 0 0 0.221758927218787 0 0 0.02967189268146787 0 0 0 0 0 0 0 0 0 0 0 0.2562461426855576 0 0 0 0 0 0 0 0 0 0 0 0 0 0 0 0 0 0 0 0 1:0.01324997 2:0.0076575341 3:0.0033606466 4:0.0034538817 5:0.0056225905 6:0.023644725 7:0.011173613 8:0.005861839 9:0.0091320328 10:0.040630883 11:0.012610299 12:0.010565162 13:0.05310001 14:0.019981609 15:0.017545196 16:0.07519524 17:0.018435098 18:0.10576668 19:0.028725965 20:0.28811731 21:0.076301479 22:0.03727638 23:0.0097962551 24:0.033104257 25:0.048358253 26:0.0090274507 27:0.052669973 28:0.058122186 29:0.071307308 30:0.086513444 31:0.12511391 32:0.30518963 33:0.23502086 34:0.071057372 35:0.037436042 36:0.050459113 37:0.07385272 38:0.069092298 39:0.27734604 40:0.53131604 41:0.13392238 42:0.11737235 43:0.089482666 44:0.066540487 45:0.86966987 46:0.12320891 47:0.15946952 48:0.48817073 49:0.59740339 50:0.094932209 51:0.32812623 52:1 53:0.17109567 54:0.72095413 55:0.78667843 56:0.1034309 57:0.87368537 58:0.12512194 59:0.73963957 60:0.2029812 61:0.68885286 62:0.63061188 63:0.10233449 64:0.53180311 65:0.45553793 66:0.31556805 67:0.19907426 68:0.33339619 69:0.31481403 70:0.2876849 71:0.24087295 72:0.2443786 73:0.26158418 74:0.18733957 75:0.1632409 76:0.15029848 77:0.13602756 78:0.11741498 79:0.088725217 80:0.086446507 81:0.065625776 82:0.052584551 
-0 0 0 0.3191268224374116 0 0 0 0.04579944736501013 0.2793240688597448 0.07633739895113238 0.2698348116056434 0.2509098204184282 0.0256225277770684 0 0 0.08738022039475661 0.3537253615132113 0 0.03481273745290508 0 0 0 0.428850020103635 0 0.5375756796320986 0.2210655075673279 0.06026006946381083 0 0 0.381722512542439 0.06128755778761631 0.312518891846276 0.1147126207093516 0.1268992954313117 0 0.3938594125834138 0 0 0.06235127060032859 0 0 0 0 0 0.172631970691193 0 0 0.2461506075931252 0 0.4806313333892999 0.1804090002772579 0.2089582296543631 0 0.6656712559608459 0.5977652819957637 0.7486390335829415 0.4036636585686497 0 0 0.3557655054596666 0 0.3471301024481392 0 0 0 0 0.04757395486172449 0.1098493617912319 0 0 0 0 0.1451191851099062 0 0 0 0 0 0 0 0 0 0 1:0.0012427503 2:0.00085539204 3:0.00039905911 4:0.00032386118 5:0.00043712012 6:0.0024663991 7:0.001442196 8:0.00063023266 9:0.00074549514 10:0.0049496488 11:0.0017525392 12:0.00089895269 13:0.0084007548 14:0.003422541 15:0.0020931537 16:0.015771612 17:0.0023443222 18:0.029105763 19:0.006617005 20:0.11916941 21:0.044253567 22:0.05801325 23:0.0085911566 24:0.01959409 25:0.010655805 26:0.0036815502 27:0.0053565259 28:0.0083807225 29:0.01390599 30:0.024833633 31:0.048903942 32:0.14641861 33:0.26813167 34:0.093338858 35:0.055364265 36:0.062812419 37:0.060370787 38:0.021424548 39:0.037043583 40:0.63449343 41:0.12275706 42:0.13065997 43:0.14543204 44:0.26715368 45:0.89753986 46:0.074776684 47:0.062978706 48:0.42153036 49:1 50:0.24807309 51:0.099519071 52:0.81589667 53:0.2457568 54:0.44148659 55:0.27830897 56:0.077442367 57:0.45493054 58:0.089849998 59:0.36245681 60:0.10201086 61:0.26735379 62:0.1418803 63:0.031982013 64:0.12243477 65:0.10371872 66:0.04341275 67:0.07466133 68:0.090388872 69:0.10875781 70:0.12843364 71:0.12443108 72:0.085211641 73:0.086915371 74:0.087164715 75:0.037235265 76:0.022783887 77:0.033978091 78:0.025998007 79:0.016416612 80:0.010326403 81:0.019106577 82:0.016717781 
-0 0 0 0 0 0.1332464005809988 0 0.1145601205274416 0 0 0.1305471959303688 0 0.04477694149230272 0.005180343383633539 0 0.1031844140627109 0 0.3335759745582963 0.2931985472761648 0 0.2176417621448201 0 0 0 0.03596293286999769 0 0 0 0 0 0.1445214825862735 0 0 0.1120732988755629 0.1167868386803243 0 0.3383293014480523 0 0 0 0.04025128052500419 0 0 0 0 0.2050663625552246 0 0 0.02545761587783826 0 0 0 0.1931384579498615 0 0.006575113026740649 0 0 0 0 0.04441677255510176 0.1173194081312347 0.008851463905878857 0 0.03273126037301641 0.1314267203875689 0 0 0 0.08917276683564883 0.05359588332082175 0 0.007875269486183533 0.001677817027882697 0.08031152940205862 0.02591896450369599 0.52789114907482 0.07654435360507454 0.1917437055805859 0.1416359634291783 0.01351334998624316 0.1458863826823824 0.1070483683623535 0.1071291056528569 1:0.003231565 2:0.0016032535 3:0.00043129566 4:0.00055235246 5:0.0014259129 6:0.0061453412 7:0.0022150928 8:0.0008314148 9:0.0025466429 10:0.01088316 11:0.0017239136 12:0.0028763855 13:0.017198715 14:0.0036385163 15:0.006858227 16:0.027968372 17:0.0053572977 18:0.054939685 19:0.011924857 20:0.23100468 21:0.072654174 22:0.081903862 23:0.011038939 24:0.030390038 25:0.024042002 26:0.0030455267 27:0.01952619 28:0.025032164 29:0.034651434 30:0.051343283 31:0.089284259 32:0.27723948 33:0.29354065 34:0.11706513 35:0.078458138 36:0.080941185 37:0.080623339 38:0.06562961 39:0.24386273 40:0.53290201 41:0.12820545 42:0.072098275 43:0.051114528 44:0.05038641 45:0.76909088 46:0.043456882 47:0.059948592 48:0.42404553 49:0.81961003 50:0.317248 51:0.47655925 52:0.96799607 53:0.23318367 54:0.98367535 55:1 56:0.12292018 57:0.8797725 58:0.17070321 59:0.90756758 60:0.37966339 61:0.86001834 62:0.85506528 63:0.085058626 64:0.60774504 65:0.60474534 66:0.4189233 67:0.19398237 68:0.41091134 69:0.47055611 70:0.46909778 71:0.40790364 72:0.39365614 73:0.53536739 74:0.42965169 75:0.30327723 76:0.41697398 77:0.3240199 78:0.34608795 79:0.24534741 80:0.3024158 81:0.26831333 82:0.23409303 
-0 0 0 0.4441246380080781 0.3756121360693666 0.178812027917158 0.8346054830147518 0.3362823032771382 0.2742883754830475 0.3034377152957782 0.1129249990533092 0.4886249136131705 0.359867655542001 0.5513560140675164 0.8784730708639594 0.3491261998531667 0.3830404279481787 0.5809453790892151 0.4656229516147989 0.4505900786473726 0.3093995325191132 0.341105565830843 0.532136790962552 0 0.1699737780700509 0.349026342527109 0.7142020280530834 0.2025415045838016 0.6663867102572889 0 0.1310857206891501 0.1870433784437143 0.1976767595748472 0.3307876591850147 0.4701656865127491 0.2258108975929978 0.0732639904276953 0.748342999595937 0.8365476446441369 0.4546347938639261 0.4704287512074148 0.6573292029670347 0.1022456703102359 0.4883119530740702 0.1985171727767411 0.6991235279577955 0.946798811963858 0.6784405858472464 0.4045201693744009 0 0.2073133260269745 0.4274049635899377 0.1947526482255179 0 0.1316633042736424 0.04508578875187413 0.1931148904856619 0.3664974931416626 0.4358308335799956 0 0.2647261329341373 0 0.03086854193649309 0.1733929435878618 0.1684669299649671 0.3202837934808357 0.05765806188533711 0.067018228974668 0.2150148711519386 0.1675630145657496 0.2617342392537874 0.2108518546523001 0.1474735014420336 0.1190308374888349 0.1784379540582426 0.1772595947044726 0.07437766585542695 0.07724364957351285 0.04511890350420351 0.09529815046108421 0.04347871311332838 0.07961305666160543 0.09473631295613054 1:0.000175878 2:0.00032595539 3:0.00031345229 4:0.00035868501 5:0.0003693489 6:0.00058189033 7:0.00068734159 8:0.00062875885 9:0.00059832342 10:0.001695603 11:0.0012447675 12:0.00098678386 13:0.0030365187 14:0.0022117381 15:0.0013679924 16:0.0082106218 17:0.0021981237 18:0.017347702 19:0.0056143811 20:0.065428122 21:0.035917608 22:0.11735485 23:0.0080985312 24:0.042757321 25:0.030679127 26:0.0050762439 27:0.024341823 28:0.025159312 29:0.025039915 30:0.025995028 31:0.032937203 32:0.04435571 33:0.32724487 34:0.019273401 35:0.01294562 36:0.029890435 37:0.044605993 38:0.050607475 39:0.17210731 40:0.56512318 41:0.58108451 42:0.2049484 43:0.16456849 44:0.19298903 45:1 46:0.226249 47:0.027625105 48:0.077029024 49:0.87016415 50:0.30206181 51:0.20447813 52:0.70592675 53:0.23754394 54:0.042829555 55:0.56530447 56:0.17262411 57:0.57022197 58:0.17059653 59:0.3420814 60:0.089985037 61:0.34900439 62:0.048044626 63:0.31400294 64:0.21662978 65:0.028317588 66:0.2486205 67:0.20764347 68:0.12352001 69:0.10476041 70:0.10377304 71:0.10783837 72:0.091720731 73:0.077162461 74:0.065864853 75:0.038859587 76:0.043405157 77:0.021837701 78:0.020451803 79:0.0083017374 80:0.012227983 81:0.014569427 82:0.0027242062 
-2.825532985777026 1.656490706719474 0.1503686274953928 0 2.500453474582 2.846384477926403 2.927039608309391 0 4.542098402386518 0.408714279651953 0 0.3266266362292786 0.2479742061725225 0 0 0 0 0 0 0 0 0 0 0 0 0 0 0 0.01358752254485706 0 0 0 0 0 0 0 0.1768559752118835 0 0 0 0 0 0 0 0 0 0.2486154338224933 0 0 0 0 0 0 0 0 0 0 0 0 0 0 0 0 0 0 0 0 0 0 0 0 0 0 0 0 0 0 0 0 0 0 0 0 1:0.015242057 2:0.0082070341 3:0.0022645249 4:0.0017997456 5:0.0056980129 6:0.029754539 7:0.012672819 8:0.003328649 9:0.0092289138 10:0.052878807 11:0.012668398 12:0.010034182 13:0.080026443 14:0.022852455 15:0.023523776 16:0.13965802 17:0.019591929 18:0.23396801 19:0.054485556 20:1 21:0.36562263 22:0.75854856 23:0.038638655 24:0.20246587 25:0.12819018 26:0.012640584 27:0.076829549 28:0.061982143 29:0.049536305 30:0.041408145 31:0.035180306 32:0.02934991 33:0.027091362 34:0.023805938 35:0.02348062 36:0.025090239 37:0.034970953 38:0.022734975 39:0.03298036 40:0.019681295 41:0.030686091 42:0.030458229 43:0.031617375 44:0.075927613 45:0.31768058 46:0.078972681 47:0.036646951 48:0.02440045 49:0.01838771 50:0.023660142 51:0.010510149 52:0.012229787 53:0.012672293 54:0.014891652 55:0.017096561 56:0.018006702 57:0.018528602 58:0.02282581 59:0.031008853 60:0.057298204 61:0.25186999 62:0.036506225 63:0.011446449 64:0.0063190402 65:0.0019065405 66:0.0033230628 67:0.0014198985 68:0.0017559178 69:0.0015108224 70:0.0020277007 71:0.0018849236 72:0.0069023884 73:0.0018478768 74:0.00121058 75:0.001370925 76:0.0016629186 77:0.0014263397 78:0.0010255066 79:0.0019745771 80:0.0019125419 81:0.0010958434 82:0.001262184 
-0 0 0 0 0 0 0.5423341644299196 0 0 0 0 0 0 0 0 0 0 0 0 0 0 0 0 0 0 0 0 0 0 0 0 0 0 0 0 0 0 0 0 0 0 0 0 0 0 0 0 0 0 0 0 0 0 0 0 0 0 0 0 0 0 0 0 0 0 0 0 0 0 0 0 0 0 0 0 0 0 0 0 0 0 0 0 1:0.005901612 2:0.004044654 3:0.0021538285 4:0.0021088331 5:0.0028886288 6:0.013856535 7:0.0079282827 8:0.0043047374 9:0.0052653471 10:0.027151777 11:0.0098615993 12:0.0071445902 13:0.044854596 14:0.019196288 15:0.019654706 16:0.089046445 17:0.022625766 18:0.36828852 19:0.12897532 20:0.91616126 21:0.37742857 22:0.9842267 23:0.055518142 24:0.26648782 25:0.18935977 26:0.021381407 27:0.12219035 28:0.072959396 29:0.11247666 30:0.12303653 31:0.12941586 32:0.18816606 33:1 34:0.13137769 35:0.03155174 36:0.028516558 37:0.05410663 38:0.047601889 39:0.050407621 40:0.53719026 41:0.25478048 42:0.10623138 43:0.16996449 44:0.055794745 45:0.17726554 46:0.15415149 47:0.17409483 48:0.21201317 49:0.60938524 50:0.18135535 51:0.051250381 52:0.65533296 53:0.32244984 54:0.12903092 55:0.2267091 56:0.18685102 57:0.19866515 58:0.047464639 59:0.14817335 60:0.041962334 61:0.16624638 62:0.043129222 63:0.075277627 64:0.1147902 65:0.0304928 66:0.056136436 67:0.12546 68:0.04822865 69:0.058287494 70:0.029029648 71:0.051448542 72:0.069879022 73:0.087230428 74:0.081754378 75:0.043818139 76:0.066863604 77:0.037478924 78:0.020738905 79:0.024534907 80:0.012513017 81:0.035122104 82:0.031236165 
-0.7541565274104881 0.4959303856621511 0 0.1352039385700664 0 0.1135375403831756 1.016679099294918 0.3815507469857464 0 0.2155195844364911 0.3693165042914154 0 0.1388371876231497 0.5995289777789178 0 0.03276628780355133 0.06755867482779382 0.2567210813376374 0.06279298172684658 0.02502938156319109 0 0.2986500515712105 0 0 0 0 1.279419352990159 1.082052661103938 0 0 0 0.001752620387849012 0 0.02316705521399903 0 0.1917876557770724 0 0.302688662737808 0 0 0 0 0.8012531616739654 0.03328506143274757 0.4296028572378524 0.1257955556903324 0 0 0 0 0.6756704193333436 0 0 0 0 0 0 0 0.181421801552254 0 0.2387360234341061 0.3001176356122931 0.0207558569228724 0 0 0.02212887969152899 0 0 0 0 0 0 0.201950905397573 0 0 0.2863727338099885 0 0 0 0 0 0 0 1:0.01029837 2:0.0053791137 3:0.0027038134 4:0.0035478575 5:0.0060096298 6:0.020939157 7:0.0085967788 8:0.0060332802 9:0.011299018 10:0.042345586 11:0.011932168 12:0.014394553 13:0.059671443 14:0.0204257 15:0.032938808 16:0.11551691 17:0.04576782 18:0.36881374 19:0.058532871 20:0.53695827 21:0.19769848 22:0.47280493 23:0.036683254 24:0.078878598 25:0.092728186 26:0.059950673 27:0.37018588 28:0.16594221 29:0.32837605 30:0.65817178 31:0.60213804 32:1 33:0.7886332 34:0.20600295 35:0.098756331 36:0.13067698 37:0.10682003 38:0.074600764 39:0.22492866 40:0.13880267 41:0.16261971 42:0.29709241 43:0.38299039 44:0.27817137 45:0.35347763 46:0.14304357 47:0.13431872 48:0.10014662 49:0.67283765 50:0.17572918 51:0.18251366 52:0.45828372 53:0.30321559 54:0.27427485 55:0.38829077 56:0.15886041 57:0.22185666 58:0.099704558 59:0.13970217 60:0.14786953 61:0.1659211 62:0.23004636 63:0.19950099 64:0.11019241 65:0.19223869 66:0.15097265 67:0.44878792 68:0.25959784 69:0.12044461 70:0.15959509 71:0.213296 72:0.20075998 73:0.2908665 74:0.12393961 75:0.1466926 76:0.096640284 77:0.048196791 78:0.054035199 79:0.023527544 80:0.042127974 81:0.030379658 82:0.026970059 
-0 0.06334887903100443 0 0 0 0 0 0 0 0 0 0 0 0 0 0 0 0 0 0 0 0 0 0 0 0 0 0 0 0 0 0 0 0 0 0 0 0 0 0 0 0 0 0 0 0 0 0 0 0 0 0 0 0 0 0 0 0 0 0 0 0 0 0 0 0 0 0 0 0 0 0 0 0 0 0 0 0 0 0 0 0 0 1:0.014306922 2:0.0070983849 3:0.0031735369 4:0.0044463505 5:0.0082574201 6:0.028683557 7:0.011031065 8:0.0070969152 9:0.015536628 10:0.057849237 11:0.014472926 12:0.019621719 13:0.098731983 14:0.030289791 15:0.043927857 16:0.18476152 17:0.041909507 18:0.45072305 19:0.11132637 20:1 21:0.404214 22:0.86203999 23:0.06973998 24:0.31859673 25:0.23206621 26:0.030887598 27:0.137537 28:0.12031649 29:0.082946458 30:0.064022854 31:0.08331904 32:0.12930661 33:0.51836549 34:0.063867052 35:0.015581988 36:0.03808351 37:0.042487498 38:0.030943521 39:0.078800473 40:0.090842547 41:0.11387072 42:0.069525467 43:0.04887708 44:0.084513844 45:0.19376519 46:0.073006223 47:0.021704738 48:0.026936441 49:0.17280695 50:0.1014323 51:0.060594032 52:0.11620604 53:0.072971082 54:0.024237688 55:0.03354178 56:0.032318762 57:0.033652322 58:0.034081345 59:0.023840443 60:0.020107066 61:0.014439755 62:0.0093796194 63:0.0092179306 64:0.003875319 65:0.002891781 66:0.002913272 67:0.0024103962 68:0.0015968627 69:0.0018295957 70:0.0013535379 71:0.0021697874 72:0.0016983669 73:0.0018447466 74:0.0017126993 75:0.0013770126 76:0.0015332652 77:0.0019873934 78:0.0020531937 79:0.0010832495 80:0.0014016501 81:0.0021775326 82:0.0018380635 
-0.02233018848139469 0 0 0 0 0 0.01968502113548401 0 0 0 0 0 0 0 0 0 0 0 0 0 0 0 0 0 0 0 0 0 0 0 0 0 0 0 0 0 0 0 0 0 0 0 0 0 0 0 0 0 0 0 0 0 0 0 0 0 0 0 0 0 0 0 0 0 0 0 0 0 0 0 0 0 0 0 0 0 0 0 0 0 0 0 0 1:0.0055643058 2:0.0033357608 3:0.0013454825 4:0.0011677659 5:0.0020473591 6:0.010719487 7:0.0055548159 8:0.0026233316 9:0.0034405381 10:0.017693978 11:0.0062014058 12:0.0043552335 13:0.02556674 14:0.01368234 15:0.010065269 16:0.023816078 17:0.026408539 18:0.17026862 19:0.11081285 20:0.97490279 21:0.30715026 22:0.58339713 23:0.029319896 24:0.14898942 25:0.056552389 26:0.0044954043 27:0.0075538095 28:0.073900159 29:0.271322 30:0.14476627 31:0.18786771 32:0.18775749 33:1 34:0.028034287 35:0.07190755 36:0.053871178 37:0.063984249 38:0.037864219 39:0.14112215 40:0.12685379 41:0.15511637 42:0.091980516 43:0.12599655 44:0.05442585 45:0.21339973 46:0.023324221 47:0.024683699 48:0.043010645 49:0.3312281 50:0.073072796 51:0.034203799 52:0.19131813 53:0.1166636 54:0.016344287 55:0.082536431 56:0.033356672 57:0.063598475 58:0.023082705 59:0.018805856 60:0.016133925 61:0.035179332 62:0.0081155843 63:0.022273825 64:0.020075635 65:0.025955829 66:0.017971204 67:0.034442392 68:0.006376681 69:0.011155121 70:0.011143245 71:0.018639994 72:0.030550191 73:0.01488058 74:0.0099256827 75:0.0077721196 76:0.017434426 77:0.0059959609 78:0.0067534858 79:0.01040891 80:0.0070268726 81:0.0062255046 82:0.003542687 
-0 2.466027834171529 0 0 0 0 0 0 0 0.822061375811796 0 0 0 0 0 0 0 0 0 0 0 0 0 2.36337530698691 0 0 0 0 0 0 0 0 0 0 0 0 0 0 0 0 0 0 0 0 0 0 0 0 0 0 0 0 0 0 0 0 0 0 0 0 0 0 0 0 0 0 0 0 0 0 0 0 0 0 0 0 0 0 0 0 0 0 0 1:0.01093971 2:0.0074807301 3:0.0058937107 4:0.0071845827 5:0.0089116252 6:0.02219275 7:0.014697441 8:0.01254675 9:0.011355694 10:0.058798799 11:0.049629038 12:0.056185149 13:0.12501575 14:0.033917139 15:0.07394148 16:0.1409377 17:0.099924136 18:0.70797974 19:0.10063198 20:1 21:0.31817831 22:0.47371888 23:0.056469371 24:0.084981385 25:0.087469015 26:0.0094346056 27:0.043354966 28:0.032107688 29:0.029874028 30:0.25992604 31:0.19367273 32:0.20210043 33:0.12523305 34:0.036870839 35:0.02928305 36:0.059128671 37:0.045459928 38:0.080269718 39:0.034857096 40:0.099244099 41:0.068086632 42:0.087415411 43:0.14180523 44:0.12568533 45:0.14167592 46:0.15447166 47:0.079342212 48:0.10138601 49:0.16370798 50:0.11028266 51:0.1020319 52:0.10970467 53:0.053496409 54:0.10294179 55:0.02690614 56:0.13744732 57:0.15080774 58:0.036400054 59:0.07232953 60:0.06328709 61:0.094735971 62:0.2373322 63:0.1464575 64:0.16523235 65:0.048240816 66:0.034589711 67:0.045219168 68:0.026061373 69:0.040024268 70:0.042277276 71:0.024135266 72:0.036899742 73:0.04406377 74:0.010933849 75:0.0041190942 76:0.0072387464 77:0.0079436895 78:0.0034686237 79:0.0033674877 80:0.0035965215 81:0.0017601413 82:0.0016416107 
-1.325712137895196 0 0 0 0 0 0 0 0 0 0 0 0 0 0 0 0 0 0 0 0 0 0 0 0 0 0 0 0 0 0 0 0 0 0 0 0 0 0 0 0 0 0 0 0 0 0 0 0 0 0 0 0 0 0 0 0 0 0 0 0 0 0 0 0 0 0 0 0 0 0 0 0 0 0 0 0 0 0 0 0 0 0 1:0.012605012 2:0.006381933 3:0.0022322982 4:0.0029001807 5:0.0061471945 6:0.024440495 7:0.0088153769 8:0.0042336279 9:0.010422834 10:0.036089357 11:0.0054607556 12:0.01949675 13:0.11503052 14:0.029557736 15:0.025241689 16:0.13495859 17:0.026549567 18:0.33096387 19:0.083247386 20:1 21:0.34831041 22:0.63547279 23:0.03832327 24:0.19502441 25:0.11290712 26:0.012342191 27:0.078534375 28:0.071100675 29:0.028026161 30:0.076973937 31:0.022778363 32:0.17351742 33:0.22195385 34:0.068449127 35:0.044017614 36:0.047205505 37:0.0553913 38:0.01253217 39:0.034004706 40:0.080001692 41:0.035082893 42:0.048422628 43:0.065608269 44:0.090545578 45:0.13610252 46:0.023496359 47:0.025283577 48:0.10270805 49:0.24390018 50:0.044913721 51:0.034304872 52:0.047599767 53:0.030388141 54:0.036798526 55:0.057721337 56:0.034271244 57:0.020369462 58:0.010999439 59:0.042483867 60:0.020460401 61:0.080778659 62:0.060504419 63:0.034352064 64:0.091638381 65:0.02969128 66:0.020790255 67:0.047686364 68:0.0250308 69:0.044623062 70:0.024928545 71:0.0192802 72:0.021110138 73:0.010249546 74:0.018410074 75:0.015850145 76:0.0079602901 77:0.00765643 78:0.0047201708 79:0.0046253715 80:0.003958047 81:0.0016275083 82:0.0016419248 
-0 3.564916391998632 10 0.03701805903427608 5.723624275969524 0 7.360427429808561 0.3577436704891914 2.078544626718729 0.00317472788678828 0.9421120651232682 1.016524297875115 0.3935779450458099 0.8912006842289592 0.09909699549183805 0.6676246467179272 1.050695113327519 0 1.285270572258667 0.7075324986559316 4.830732430999779 3.228382294693232 10 10 10 10 0.7994768104072844 1.083856712135749 0.8542954973338869 0.8129606945445713 0.64342971684314 0.8559739051623236 1.185521587201043 1.085140416881006 0.9126634429682222 0.9533367085496111 0.5825676955765807 1.650841937189015 0.9831419621723465 1.338645540971297 0.9126595859529816 0.8485736120477361 1.129310837935588 1.009411605954914 1.024677917640816 1.118109697147601 0.807797615854979 0.7883518621489729 0.5774426398750101 0.8731238550814074 0.7467466618256362 0.9066586597391801 0.5710884825483016 0.6985511553240345 0.6752922362040669 0.8499978084378695 0.8716480179737083 0.7235097838423626 0.9821844157148851 0.7740966263159307 0.7478894439898616 0.9771817588082271 2.737512025143761 0.8147170430972982 0.6192519177746 0.7218970938453442 0.5893185528663124 0.7147029912157091 0.723584042685921 0.7410822325611144 0.7700656560447496 0.5786576509548231 0.8836339329212661 0.6338056989880573 0.6296547127534602 0.3398859451727361 0.5472432443863601 0.5892620324943171 0.5657811912878247 0.527591741524547 0.5993599152932257 0.634832902384659 0.6088330643490248 1:0.0084415661 2:0.0057311546 3:0.0039228051 4:0.0046565931 5:0.006076517 6:0.018073819 7:0.011004335 8:0.0092328087 9:0.011494347 10:0.03125535 11:0.019013827 12:0.022744619 13:0.053138624 14:0.031943881 15:0.050063245 16:0.12449358 17:0.11595922 18:1 19:0.28237574 20:0.31175822 21:0.0492764 22:0.11245903 23:0.021319142 24:0.057746801 25:0.062560686 26:0.0068114812 27:0.039322382 28:0.048010546 29:0.069129215 30:0.17747519 31:0.073569494 32:0.012081569 33:0.0096280588 34:0.014170834 35:0.013999384 36:0.01275154 37:0.044177204 38:0.038188137 39:0.01801996 40:0.0082463294 41:0.0080977671 42:0.070578673 43:0.055223143 44:0.064551053 45:0.026210571 46:0.039245087 47:0.025725608 48:0.0050434918 49:0.015520859 50:0.027486541 51:0.01050829 52:0.039867194 53:0.019604116 54:0.016004307 55:0.026765793 56:0.0083231321 57:0.018583063 58:0.02168507 59:0.026523311 60:0.039779545 61:0.016619806 62:0.06001657 63:0.03876808 64:0.023140045 65:0.0066490156 66:0.0071267124 67:0.010262266 68:0.0056391505 69:0.01325701 70:0.0051004878 71:0.007116648 72:0.0031680709 73:0.002294015 74:0.0033913932 75:0.0027104868 76:0.0034290807 77:0.0015319626 78:0.0019467929 79:0.0013720649 80:0.0018241698 81:0.0010902168 82:0.0003265541 
-0 3.271138032499101 7.417159894157627 0 1.919350230714902 0 1.147748956594366 0 0.5981515319417485 0.1460712227984324 0.06290684303723365 0.004009900691857617 0.3134860432355905 0.4276228546561042 0 0.1149782414049791 0.1416585899230724 0 0.1555787436566598 0.4024534124825113 0 0 0 0 0 0 0.2067074692143641 0.1606878546222205 0 0 0 0 0 0.06225986170289604 0 0 0 0.1171972923816891 0 0 0 0.205353529608605 0 0 0 0.3044480824801684 0 0 0 0.05177951735397179 0.381065863666216 0 0 0 0 0 0 0 0 0 0.1365313317579236 0 0 0 0 0 0 0 0 0 0 0 0.06633908177023287 0 0 0.1476741769794119 0 0 0 0 0 0 0 1:0.0036089744 2:0.0027890416 3:0.003711212 4:0.0050058993 5:0.0065243758 6:0.0087856765 7:0.0055724834 8:0.0086271221 9:0.011716783 10:0.013717063 11:0.015371722 12:0.02189651 13:0.045846632 14:0.02770115 15:0.047326175 16:0.082215931 17:0.06195853 18:0.43026409 19:0.17752947 20:1 21:0.22995055 22:0.15636017 23:0.042376248 24:0.093181523 25:0.15672027 26:0.024888712 27:0.10701193 28:0.077039793 29:0.093809727 30:0.082905807 31:0.78690215 32:0.83102577 33:0.17625144 34:0.015002343 35:0.038858497 36:0.048296349 37:0.031700846 38:0.067121859 39:0.66950203 40:0.10698388 41:0.073206186 42:0.077441539 43:0.035004365 44:0.39233567 45:0.15508365 46:0.14823549 47:0.14566846 48:0.27984295 49:0.15990625 50:0.10925573 51:0.2159007 52:0.076727999 53:0.11596651 54:0.13386776 55:0.12844172 56:0.18734092 57:0.14254452 58:0.098498297 59:0.074684665 60:0.13450577 61:0.080593997 62:0.26593901 63:0.27235389 64:0.27484438 65:0.13050627 66:0.08231844 67:0.15915618 68:0.05122226 69:0.057861408 70:0.056975801 71:0.047008786 72:0.07850825 73:0.049095494 74:0.035291648 75:0.017666014 76:0.011776633 77:0.035143496 78:0.071456463 79:0.023057346 80:0.019922151 81:0.0070207274 82:0.0089532001 
-1.05965512859039 0.5159219982142035 10 0 3.208636051196427 0 0 0 2.393934844984351 0 0 0.318676450238554 0.08912453100399655 0 0 0 0.2021315663577303 0 0.1405780644936517 0 0 0 0 0 0 0 0.6070880789783058 0.2983864396220108 0.458626732157306 0.4494416710469958 0.3185416244378838 0.6442167647227498 0.659637862745745 0.5731408583270712 0.5413541916189173 0.4545874800742658 0.1259311107966217 0 0 0.819275514722885 0.54014378312224 0 0.1718561412017014 0.3654100636637432 0.07239879034427046 0 0.310638902096445 0.3171731644973003 0.2163818655415155 0.451738311722499 0.4020613654033408 0.6417606297312914 0.2334267370702987 0.4415121207497816 0.3495120809530645 0.4549530733614861 0.471401359649739 0.4076460040806866 0.2415974882375342 0.3066792208736499 0.09482744244474314 0.2759337979755952 0 0.4892563281487631 0.3113421237371488 0.35744401549086 0.3803468004586252 0.3758196297883621 0.3453480451299328 0.4600890844480445 0.4171820121812103 0.351477109173472 0.4071834053155642 0.3476560049083215 0.2933272163066923 0 0.2180814785313777 0.2422957807299018 0.2765886384288593 0.2185996975991961 0.1961733028928409 0.2492470469521507 0.2490039387635961 1:0.0087480758 2:0.0040708675 3:0.00087215561 4:0.0015009237 5:0.0040095794 6:0.016125304 7:0.005250263 8:0.0026670991 9:0.0077794746 10:0.028881103 11:0.0040043491 12:0.0093939356 13:0.04420229 14:0.0089998447 15:0.022018274 16:0.064725103 17:0.021459755 18:0.091744642 19:0.073144623 20:1 21:0.279661 22:0.23383165 23:0.039343287 24:0.067426311 25:0.045968531 26:0.0073464582 27:0.011546815 28:0.0069178932 29:0.017871254 30:0.04812317 31:0.10976879 32:0.29610169 33:0.22640439 34:0.099169967 35:0.067715766 36:0.067575795 37:0.065156036 38:0.044962191 39:0.12860673 40:0.076672926 41:0.021228634 42:0.021551845 43:0.032494704 44:0.07400985 45:0.17894353 46:0.021135157 47:0.0054156966 48:0.12534311 49:0.17908237 50:0.020159603 51:0.043664139 52:0.12616098 53:0.011293581 54:0.019208595 55:0.0054722961 56:0.043185405 57:0.1023717 58:0.04169599 59:0.092274821 60:0.04293022 61:0.056616447 62:0.14050216 63:0.017258797 64:0.13078047 65:0.094074206 66:0.0071069018 67:0.012679534 68:0.010672228 69:0.028580564 70:0.021775727 71:0.029620241 72:0.043671095 73:0.02934594 74:0.012646035 75:0.0061361507 76:0.018588656 77:0.010932098 78:0.029504229 79:0.0088586069 80:0.010517228 81:0.0078278245 82:0.0072906286 
-2.356750172159649 2.109611030637952 1.999078736436023 0 0 0 0 0 0 0 0 0 0 0 0 0 0 0 0 0 0 0 0 0 0 0 0 0 0 0 0 0 0 0 0 0 0 0 0 0 0 0 0 0 0 0 0 0 0 0 0 0 0 0 0 0 0 0 0 0 0 0 0 0 0 0 0 0 0 0 0 0 0 0 0 0 0 0 0 0 0 0 0 1:0.0043019113 2:0.001267707 3:0.0026575852 4:0.004025131 5:0.0057136606 6:0.0089836679 7:0.0034662081 8:0.0072410457 9:0.010325547 10:0.012236902 11:0.01777195 12:0.029125814 13:0.092876417 14:0.033020129 15:0.049103175 16:0.15066803 17:0.10422793 18:0.71485386 19:0.15531737 20:1 21:0.35656644 22:0.87164033 23:0.11925576 24:0.19277993 25:0.064506002 26:0.028302271 27:0.087407427 28:0.11099161 29:0.10944771 30:0.12532852 31:0.10173858 32:0.050726895 33:0.1078212 34:0.018939084 35:0.030321917 36:0.039093953 37:0.038283004 38:0.030389144 39:0.09124226 40:0.11709486 41:0.022692251 42:0.018932631 43:0.023406089 44:0.03650276 45:0.031905056 46:0.017915047 47:0.026723042 48:0.030190735 49:0.051956485 50:0.025990384 51:0.022331778 52:0.026911809 53:0.030850166 54:0.047426891 55:0.066678865 56:0.037664479 57:0.038211627 58:0.022386134 59:0.019144425 60:0.010636431 61:0.010344757 62:0.0078229167 63:0.0067104216 64:0.0023715537 65:0.0039789398 66:0.0023753189 67:0.0026981949 68:0.0040326361 69:0.0022680057 70:0.0032461735 71:0.0026483593 72:0.0023125605 73:0.003200749 74:0.0026607394 75:0.0025295462 76:0.002462694 77:0.003652416 78:0.0023329778 79:0.0024749371 80:0.0031197646 81:0.0032224119 82:0.0022378789 
-10 0 0 2.474237653563115 6.089326379213847 4.056805943504437 10 0.8939005492731316 2.495742137730179 0 0.2978632212855226 0 0.02990955113851407 0.4552167461799447 8.131373400731656 0.3531987474175672 0.2322488995725986 2.553983011688964 0.128320553952193 0.0644591497868927 0 0.1771029219328607 0 0.22740370008358 0 0 0 0 0 0 0 0 0 0 0 0 0 0 0 0 0 0 0 0 0 0 0 0 0 0 0 0 0 0 0 0 0 0 0 0 0 0 0 0 0 0 0 0 0 0 0 0 0 0 0 0 0 0 0 0 0 0 0 1:0.006339066 2:0.0033115941 3:0.0014386915 4:0.0019243085 5:0.0037753474 6:0.0153138 7:0.0073597611 8:0.0047270642 9:0.0096476352 10:0.04870876 11:0.021242884 12:0.021606912 13:0.075795002 14:0.021433807 15:0.033374976 16:0.11734994 17:0.046539294 18:0.57691501 19:0.1445325 20:0.59161255 21:0.33067713 22:1 23:0.06121688 24:0.2858843 25:0.21757177 26:0.028399038 27:0.114106 28:0.12066907 29:0.082244513 30:0.043055665 31:0.058419143 32:0.028510107 33:0.067966704 34:0.098813275 35:0.060715413 36:0.066811614 37:0.064562287 38:0.047781763 39:0.077729049 40:0.093036721 41:0.078652964 42:0.057719135 43:0.052907326 44:0.040803151 45:0.05459981 46:0.059595451 47:0.046123183 48:0.0422831 49:0.040253861 50:0.034876982 51:0.041114122 52:0.060576623 53:0.024586889 54:0.036385643 55:0.036722191 56:0.029126302 57:0.04462665 58:0.045397024 59:0.030511235 60:0.022294197 61:0.017409668 62:0.013884363 63:0.012476791 64:0.0034685049 65:0.0041632601 66:0.0067549383 67:0.0034417804 68:0.0034694565 69:0.0046506613 70:0.0034329209 71:0.0033715785 72:0.0025638575 73:0.003227944 74:0.0026783637 75:0.0023768521 76:0.0029104973 77:0.0028855275 78:0.0022775759 79:0.0024787233 80:0.0030070985 81:0.0025333203 82:0.0023010307 
-0 0 0 0 0 0 0 0 0 0 0 0 0 0 0 0 0 0 0 0 0 0 0 0 0 0 0 0 0 0 0 0 0 0 0 0 0 0 0 0 0 0 0 0 0 0 0 0 0 0 0 0 0 0 0 0 0 0 0 0 0 0 0.2779349650989306 0 0 0 0 0 0 0 0 0 0 0 0 0 0 0 0 0 0 0 0 1:0.018117392 2:0.009951758 3:0.002722458 4:0.0018722198 5:0.0065776154 6:0.035411189 7:0.015295857 8:0.0047974456 9:0.011960156 10:0.05742741 11:0.0088566196 12:0.020848112 13:0.16675215 14:0.054613539 15:0.021005654 16:0.14794177 17:0.043486098 18:0.56994683 19:0.12264844 20:0.97919798 21:0.44073432 22:1 23:0.08693114 24:0.39695546 25:0.2623335 26:0.032521037 27:0.1515355 28:0.14349177 29:0.10373114 30:0.081275187 31:0.078663886 32:0.11805735 33:0.22721663 34:0.077060318 35:0.024902243 36:0.034962564 37:0.036210082 38:0.023707683 39:0.059642249 40:0.13698506 41:0.094564091 42:0.049833858 43:0.042452974 44:0.0333734 45:0.06327152 46:0.041691691 47:0.036967122 48:0.03618127 49:0.043651966 50:0.021261263 51:0.026949394 52:0.031524639 53:0.029880173 54:0.029324257 55:0.02905793 56:0.025661398 57:0.029493388 58:0.023345584 59:0.01967797 60:0.016526841 61:0.013201352 62:0.0092425581 63:0.0071165851 64:0.0029049769 65:0.0038230152 66:0.0024590839 67:0.001665157 68:0.0023581095 69:0.0016872113 70:0.0026065664 71:0.0016014549 72:0.0018465422 73:0.002568514 74:0.0014889427 75:0.0017259831 76:0.0024515648 77:0.0013244225 78:0.0013789001 79:0.0018809022 80:0.0018459326 81:0.0012272807 82:0.0014723906 
-0 0.3171013492917773 10 0 0 0 0 0 0 0 0 0 0 0 0 0 0 0 0 0 0.853482127058129 0 8.009694015279937 6.671913503904204 1.014424708015893 3.686813071588179 0 0 0 0 0 0 0 0 0 0 0 0 0 0 0 0 0 0 0 0 0 0 0 0 0 0 0 0 0 0 0 0 0 0 0 0 0.9042865369775652 0 0 0 0 0 0 0 0 0 0 0 0 0 0 0 0 0 0 0 0 1:0.0090002524 2:0.0038202559 3:0.0045133465 4:0.0069125763 5:0.010665028 6:0.025451634 7:0.010253217 8:0.013071291 9:0.025742156 10:0.091220286 11:0.020411303 12:0.0089584793 13:0.055667957 14:0.052685629 15:0.056288758 16:0.13428976 17:0.15984032 18:1 19:0.18718015 20:0.49901706 21:0.17754189 22:0.34025042 23:0.097791153 24:0.12209335 25:0.083102345 26:0.030134141 27:0.069005918 28:0.066212857 29:0.074246778 30:0.02026221 31:0.10742039 32:0.29744535 33:0.089327578 34:0.046198641 35:0.042178581 36:0.039003377 37:0.044567693 38:0.046520798 39:0.25164419 40:0.13374644 41:0.057879916 42:0.056359359 43:0.064116258 44:0.1905559 45:0.058166082 46:0.05434389 47:0.054474145 48:0.063268936 49:0.05290485 50:0.035450642 51:0.029613989 52:0.033084936 53:0.042814785 54:0.030869264 55:0.058825805 56:0.04324007 57:0.041993354 58:0.03396757 59:0.026081146 60:0.02447949 61:0.020323526 62:0.01353066 63:0.0094903414 64:0.0026257175 65:0.0054890004 66:0.00436312 67:0.0038673565 68:0.0040743153 69:0.0034837061 70:0.004364165 71:0.0038618365 72:0.0037126424 73:0.0043207749 74:0.0039948045 75:0.0036958372 76:0.0037110077 77:0.0041422147 78:0.0041621535 79:0.0035892423 80:0.0036699859 81:0.0040199249 82:0.0041691434 
-0 0 0 0 0 0 8.93130806439512 0 0 0 0 0 0 0 0 0 0 0 0 0 0 0.0467988055523973 0 0 0 0 0 0 0 0 0 0 0 0 0 0 0 0 0 0 0 0 0 0 0 0 0 0 0 0 0 0 0 0 0 0 0 0 0 0 0 0 0 0 0 0 0 0 0 0 0 0 0 0 0 0 0 0 0 0 0 0 0 1:0.01081809 2:0.0048231063 3:0.00060460913 4:0.001724133 5:0.0048671151 6:0.018007439 7:0.0045569308 8:0.0028336077 9:0.0076458842 10:0.019356055 11:0.020771866 12:0.038166735 13:0.1622775 14:0.042579806 15:0.059069542 16:0.24246965 17:0.051751315 18:0.72353495 19:0.17109778 20:0.82061066 21:0.39945956 22:1 23:0.051580983 24:0.17818508 25:0.16956171 26:0.022871919 27:0.082617396 28:0.089492094 29:0.068460881 30:0.025882203 31:0.11881569 32:0.078310607 33:0.2529842 34:0.12954298 35:0.043668298 36:0.025564399 37:0.028109084 38:0.03738895 39:0.043112361 40:0.054674826 41:0.039130582 42:0.044300032 43:0.038069061 44:0.04394733 45:0.12113344 46:0.068370756 47:0.03203111 48:0.020773011 49:0.10193534 50:0.025336649 51:0.01817197 52:0.018682698 53:0.026290736 54:0.010821875 55:0.053684904 56:0.019055645 57:0.13812709 58:0.029489817 59:0.012404511 60:0.0052224537 61:0.011240272 62:0.0053544526 63:0.014047178 64:0.0091513454 65:0.0075257296 66:0.0055810119 67:0.011485014 68:0.013099762 69:0.004696089 70:0.0071396874 71:0.0035542144 72:0.0033008925 73:0.0030151902 74:0.0015514415 75:0.0017294441 76:0.0021221926 77:0.002387163 78:0.001527647 79:0.0020736789 80:0.0014243716 81:0.0017970455 82:0.0010396148 
-0 0 0 0 0 0 0 0 0 0 0 0.09416907875336336 0 0 0 0 0 0 0 0 0 0 0 0 0 0 0 0 0 0 0 0 0 0 0 0 0 0 0 0 0 0 0 0 0 0 0 0 0 0 0 0 0 0 0 0 0 0 0 0 0 0 0 0 0 0 0 0 0 0 0 0 0 0 0 0 0 0 0 0 0 0 0 1:0.0088848785 2:0.0055766172 3:0.0019674004 4:0.00074836082 5:0.0026014856 6:0.02138351 7:0.01208879 8:0.0046779449 9:0.0054271094 10:0.04885611 11:0.022222873 12:0.018500192 13:0.083654589 14:0.029675547 15:0.012711623 16:0.068530339 17:0.036063637 18:0.43492387 19:0.12027659 20:0.90076437 21:0.40997084 22:1 23:0.10422289 24:0.52230458 25:0.30984791 26:0.041832398 27:0.21094712 28:0.17536449 29:0.1763965 30:0.15191494 31:0.14341571 32:0.22939939 33:0.33453906 34:0.1543578 35:0.029605943 36:0.041998387 37:0.070505355 38:0.0518932 39:0.10856069 40:0.19693459 41:0.021195472 42:0.036979964 43:0.04238818 44:0.070847595 45:0.4588873 46:0.11865103 47:0.075129354 48:0.056421819 49:0.046364761 50:0.055122668 51:0.046862692 52:0.07956352 53:0.074146523 54:0.057581485 55:0.078858472 56:0.058876742 57:0.11999483 58:0.064748073 59:0.047756788 60:0.037402372 61:0.030194268 62:0.02089881 63:0.013959733 64:0.0064020798 65:0.007749401 66:0.006013238 67:0.0029828051 68:0.0045223123 69:0.0027317319 70:0.0035103595 71:0.0033645887 72:0.0024112075 73:0.0031075566 74:0.0028113463 75:0.002600344 76:0.0029160843 77:0.0028238296 78:0.002652938 79:0.0026820888 80:0.0034580325 81:0.0036474047 82:0.0026249478 
-0.3081677213677987 0.3756767428433906 0 0 0 0 0 0 0.2778073265345529 0 0 0 0 0 0 0 0 0 0 0 0 0 0 0 0 0 0 0 0 0 0 0 0 0 0 0 0 0 0 0 0 0 0 0 0 0 0 0 0 0 0 0 0 0 0 0 0 0 0 0 0 0 0 0 0 0 0 0 0 0 0 0 0 0 0 0 0 0 0 0 0 0 0 1:0.011001407 2:0.0062281497 3:0.0019682101 4:0.0014420419 5:0.003765845 6:0.019593376 7:0.008113505 8:0.002304504 9:0.0079657569 10:0.044565315 11:0.01036117 12:0.0077866136 13:0.070725451 14:0.021494216 15:0.019766026 16:0.12968161 17:0.018816801 18:0.24162733 19:0.053559444 20:0.90505981 21:0.35731481 22:0.85638132 23:0.044266574 24:0.25813783 25:0.16396995 26:0.016208067 27:0.10773922 28:0.093702223 29:0.082741879 30:0.076345288 31:0.073574311 32:0.08158446 33:0.09513653 34:0.057303303 35:0.06049765 36:0.09139181 37:0.11868333 38:0.10975588 39:0.35500512 40:1 41:0.49119363 42:0.17558933 43:0.10962747 44:0.085715276 45:0.056178487 46:0.059957736 47:0.063223459 48:0.083745117 49:0.18439039 50:0.024483909 51:0.026415643 52:0.055971359 53:0.017749422 54:0.064694239 55:0.21679162 56:0.063283264 57:0.054591878 58:0.081411176 59:0.29078695 60:0.042039563 61:0.12561949 62:0.025308142 63:0.044395306 64:0.058601984 65:0.042636767 66:0.084021523 67:0.045177993 68:0.066802399 69:0.068575446 70:0.034859861 71:0.0099783806 72:0.0075109818 73:0.022143219 74:0.020102606 75:0.022028767 76:0.027515074 77:0.020924005 78:0.020619186 79:0.011319659 80:0.014731334 81:0.0083965537 82:0.0071720179 
-0.512878371958451 0 0 0.05861268505750469 0 0.02619663677992044 0.3473363553304285 0.1947087052208931 0.5708274076157495 0 0.1420751268707545 0.03957929094440601 0.06434046331083662 0.2640326912751905 0.1037146828223993 0.2166487838736236 0.2686401933764482 0.05791083411477381 0.3304061608597287 0.3724637261186058 0 0 0 0 0 0 0 0.1758884115467958 0 0.219104744561457 0.2967673102473398 0.1427344404530913 0.2252610503149859 0.1284356197215522 0.2660533152842313 0.1886438452161418 0.1241027471216836 2.61544553223128 1.926717945322778 0.3947113516142276 0.2397180874314538 0.9943528912614478 0.4226837917453731 0.3268692309383574 0.313011957644927 0.7465169513227806 0 0 0.2129891786523933 0.2046514897993859 0 0.05953846827922697 0.293492111891587 0.04906525101772565 0 0.0231480489963147 0.04140919088246355 0.01606607105632631 0.5374809344691994 0.1602703074699813 0.3354804679388183 0.361592264922662 0 0.4457084287805674 0.2579646198504362 0.2694691014302838 0.1445659671187927 0.1634920895391257 0.2185351597547362 0.2784887065410604 0.2600032427526447 0.1409726283288801 0.4226646311763806 0.1816940900723804 0.2063486650766132 0.1744739679920774 0.2812820017883017 0.2430922110325088 0.1958777919006913 0.2884014775968459 0.3573133933898839 0.2952219904656296 0.2439416925996651 1:0.0060293599 2:0.0030378432 3:0.0005707301 4:0.0006161082 5:0.0025579992 6:0.0125459 7:0.004910268 8:0.00095457263 9:0.0046017712 10:0.024648415 11:0.0048383236 12:0.004097693 13:0.037871271 14:0.0094807507 15:0.012465297 16:0.072069364 17:0.0093790881 18:0.14209871 19:0.026902207 20:0.55728643 21:0.21164901 22:0.41303331 23:0.028197174 24:0.14212409 25:0.09862527 26:0.010794318 27:0.063488447 28:0.056313199 29:0.050125923 30:0.044638026 31:0.042415312 32:0.042177801 33:0.026940717 34:0.034254776 35:0.035902373 36:0.055937043 37:0.072312473 38:0.062048164 39:0.20099162 40:1 41:0.14700209 42:0.059252974 43:0.02836587 44:0.018450023 45:0.028593871 46:0.0098823767 47:0.011978372 48:0.027033075 49:0.17091061 50:0.014405927 51:0.007808453 52:0.022529108 53:0.041140559 54:0.14443496 55:0.28971737 56:0.061964508 57:0.037154977 58:0.066262401 59:0.41052969 60:0.062424155 61:0.15990084 62:0.07300265 63:0.070055944 64:0.1414979 65:0.25079814 66:0.061355912 67:0.13102279 68:0.12449816 69:0.20953374 70:0.05503756 71:0.044642781 72:0.022841706 73:0.1555016 74:0.17299342 75:0.16771845 76:0.078968049 77:0.21762254 78:0.072054653 79:0.061370025 80:0.051571969 81:0.024751822 82:0.023979683 
-0 -0.7538911365619759 0 0.6342001007943937 0 0.9204111022252579 0.00260186781286657 0.7069639223971489 0.1620731468288638 0.03140379499318832 0.5957726539143473 0.04500294777732328 1.19421120280541 0.3871069407476095 0 1.503906071499662 0.8599156719092532 1.700254544592359 0.8125544883453617 0 0.5129678350021197 0.5345302080393709 1.041390986845119 0 0.8654107066611813 0 0 0 0 0 0.08924895267400856 0 0 0.2525158465949015 0.04498287394931019 0 0.09729687781218344 0.2013811821777903 0 0 0.028013975028313 0 0 0.1026533250928154 0 0 0 0.2511965784617404 0.223792257622982 0 0.5965643534550782 0 0.3269167820344829 0 0 0 0.0841366441548949 0 0.1277652816831611 0.2323166408278582 0.2314569567866566 0 0.3604062138035451 0.04436633814808643 0 0 0 0 0 0 0 0 0 0 0 0.6135251834121288 0 0 0 0 0.08432853698973024 0 0 1:0.0052888912 2:0.003340431 3:0.0012434015 4:0.0012246152 5:0.0046065903 6:0.035697714 7:0.023646583 8:0.015793849 9:0.020998472 10:0.060311423 11:0.009004376 12:0.0040859455 13:0.027176657 14:0.0052548213 15:0.0069137388 16:0.021950635 17:0.0060660851 18:0.027665289 19:0.02810244 20:0.23833593 21:0.048300817 22:0.048980866 23:0.0076982443 24:0.054603667 25:0.066219084 26:0.025937266 27:0.21655236 28:0.10721524 29:0.030166669 30:0.02153896 31:0.074608191 32:0.31368135 33:0.066718342 34:0.053905466 35:0.057484663 36:0.24318115 37:0.05351933 38:0.034827243 39:0.341308 40:0.10453183 41:0.12591049 42:0.37888445 43:0.063919235 44:0.52644516 45:0.20878525 46:0.49295811 47:0.076532156 48:0.43485411 49:0.23991201 50:0.42720389 51:0.43720497 52:0.52586333 53:0.71747381 54:0.71336817 55:1 56:0.74561032 57:0.67970047 58:0.68269102 59:0.56568309 60:0.58297305 61:0.61646463 62:0.74879565 63:0.45814929 64:0.5736913 65:0.63312362 66:0.83313745 67:0.8392745 68:0.85072754 69:0.6819762 70:0.61126115 71:0.56480256 72:0.58711184 73:0.49120408 74:0.56345659 75:0.4998881 76:0.48353804 77:0.47284644 78:0.44369668 79:0.40959343 80:0.3615464 81:0.30208583 82:0.24430577 
-0 -0 0 0 0 0 0 0.006883275375851635 0 0 0 0 0 0 0 0 0 0 0.3613836138130754 0 0 0 0 0 0 0 0 0 0 0 0 0 0 0 0 0 0.01397485311835405 0 0 0 0 0 0 0 0 0 0 0 0 0 0 0.1928261630156187 0 0 0 0 0 0 0 0 0 0 0 0 0.05406152574306621 0 0 0.02289431410086996 0.1286945676136211 0 0 0 0 0 0 0 0 0 0 0 0 0 0 1:0.0043354261 2:0.0018179269 3:0.00039647079 4:0.0018085946 5:0.0060845206 6:0.038620716 7:0.023530785 8:0.014465548 9:0.018643792 10:0.054932148 11:0.0095293029 12:0.0023398168 13:0.02728611 14:0.0092020895 15:0.0025762441 16:0.029466237 17:0.0054011325 18:0.054943748 19:0.037898243 20:0.19169242 21:0.041597182 22:0.021529434 23:0.012322471 24:0.021383488 25:0.035083528 26:0.030658452 27:0.2013289 28:0.10318926 29:0.065532792 30:0.063874436 31:0.15781169 32:0.23067839 33:0.05388223 34:0.017982477 35:0.038970703 36:0.22852037 37:0.071530171 38:0.063401799 39:0.3459443 40:0.085325621 41:0.14097173 42:0.31719246 43:0.10775637 44:0.52991978 45:0.17332974 46:0.5220302 47:0.12781948 48:0.36388044 49:0.30678142 50:0.29060024 51:0.45103503 52:0.44853409 53:0.55478676 54:0.53304334 55:0.70169852 56:0.69808179 57:0.51368426 58:0.60525918 59:0.55926086 60:0.59886561 61:0.72277773 62:0.64924209 63:0.58766578 64:0.66594018 65:0.62270306 66:0.73800192 67:1 68:0.97707402 69:0.81708987 70:0.80411067 71:0.72909567 72:0.76591175 73:0.8204201 74:0.74640914 75:0.72112039 76:0.71520185 77:0.73410953 78:0.70888432 79:0.70425376 80:0.81585924 81:0.81548631 82:0.80062201 
-0.2682762809932328 -0 0.06392452928293443 1.33270150137342 0.6357467015664754 0.08426030389004142 0 0.2924542014514082 0 0.0849909882082513 0.4752721599004924 0 0 0.1679913224291678 0 0.441627280417804 0.517314829918778 0 0 0 0.7822870166439364 0.08815289289573218 0.9956241840697107 0 0.3113037293541837 0 0 0.1032564471611456 0 0.2173140986792089 0.1171304565985904 0 0 0 0 0.1425046208771277 0 0 0 0 0 0 0 0 0 0 0 0 0 0 0 0 0 0 0.04219459507351302 0 0 0 0 0 0 0 0 0 0 0.08577993089410511 0 0 0 0 0 0 0 0 0 0.4835248048186893 0 0 0 0 0 0 0 1:0.0068253349 2:0.0044551587 3:0.0016544962 4:0.00064093221 5:0.0033940204 6:0.032985234 7:0.023135269 8:0.015986851 9:0.021406965 10:0.060424846 11:0.0086954833 12:0.0046496163 13:0.031164361 14:0.0075418996 15:0.0061873735 16:0.022035358 17:0.0090709527 18:0.024510854 19:0.021573171 20:0.22403236 21:0.050576765 22:0.036897711 23:0.010729462 24:0.029681726 25:0.060680579 26:0.022474246 27:0.16058557 28:0.16862393 29:0.072918296 30:0.044827876 31:0.035624414 32:0.35252439 33:0.049577814 34:0.039232417 35:0.060416345 36:0.20438413 37:0.12858178 38:0.029813915 39:0.33138572 40:0.071205087 41:0.12288068 42:0.43683083 43:0.14306144 44:0.48601742 45:0.12369823 46:0.4520503 47:0.2806284 48:0.43024624 49:0.24967889 50:0.49285045 51:0.52840039 52:0.51671294 53:0.54912677 54:0.85415473 55:0.83266771 56:0.70981946 57:0.68420182 58:0.5755138 59:0.65897732 60:0.56322132 61:0.57661682 62:0.63885538 63:0.62124794 64:0.46769763 65:0.83298811 66:0.69733785 67:1 68:0.97100187 69:0.66826386 70:0.6318204 71:0.61273309 72:0.61648018 73:0.72088314 74:0.69113514 75:0.68542585 76:0.64792984 77:0.61106991 78:0.60978981 79:0.59245619 80:0.53952216 81:0.39748386 82:0.38368623 
-0 -0 0 0 0 0 0 0 0 0 0 0 0 0.1155190896916529 0 0 0 0 0.0077445063484365 0 0 0 0 0 0 0 0 0 0 0 0 0 0 0 0 0 0 0 0 0 0 0 0 0 0 0 0 0 0 0 0 0 0 0 0 0 0 0 0 0 0 0 0 0 0 0 0 0 0 0 0 0 0 0 0 0 0 0 0 0 0 0 0 1:0.0060696955 2:0.0041061768 3:0.0016278517 4:0.00089177282 5:0.0035574205 6:0.033477569 7:0.023446134 8:0.016200268 9:0.021449182 10:0.058258754 11:0.0070571336 12:0.0060209315 13:0.032084269 14:0.0055689112 15:0.0088654526 16:0.023078565 17:0.009299448 18:0.031633848 19:0.023654607 20:0.23926666 21:0.047693346 22:0.059241716 23:0.0088163349 24:0.06143266 25:0.088535192 26:0.027857493 27:0.21063097 28:0.11522714 29:0.030798936 30:0.012599014 31:0.033812173 32:0.34434803 33:0.071406976 34:0.062185932 35:0.085346705 36:0.23601904 37:0.058306091 38:0.029900232 39:0.33302561 40:0.1157865 41:0.18238875 42:0.43182152 43:0.079984129 44:0.53405299 45:0.21786573 46:0.55856965 47:0.10982195 48:0.42553 49:0.26041989 50:0.42013567 51:0.52335001 52:0.55815793 53:0.69249211 54:0.83651352 55:0.9472817 56:0.74376526 57:0.62756706 58:0.71440676 59:0.59913313 60:0.61970958 61:0.64103659 62:0.73298864 63:0.55139549 64:0.50412181 65:0.75678778 66:0.78258541 67:0.81109043 68:1 69:0.6721193 70:0.57064297 71:0.56422849 72:0.62643159 73:0.63082637 74:0.67257797 75:0.61212015 76:0.6420928 77:0.64602168 78:0.67333974 79:0.67472112 80:0.63724858 81:0.53709628 82:0.46804515 
-0 -0 0.2202862462832303 0.5424396581396643 0.3158426427526959 0.2542428450798775 0.4111939284720873 0 0 0 0 0 0 0.3442631382994675 0.2607318347523799 0.0744374746020489 0 0 0 0.2293057832412469 0 0.332222197923374 0.57046701484899 0.07237275118735539 1.198627994834674 0.4973592070662041 0 0 0 0 0 0.0198142144558632 0 0 0 0.06470097616018229 0.1162171164797414 0.2758080877712633 0.05272630801994363 0 0 0.3742148674820339 0 0 0 0.2185079734743567 0.05160862414199182 0 0 0.0008526712848902952 0 0 0 0.08542531950058804 0.0562418548641249 0.2522874423699749 0 0.0150114579200861 0.06547786534962015 0 0 0 0.1049691852342224 0 0 0.04307642814675102 0 0 0 0 0 0 0 0.1863979564398759 0 0.1095913020142882 0.2224520515514581 0.2783432072345281 0.3251720284743933 0.1988886673760776 0.2644920826779914 0.11775926639235 0.1267808746894538 1:0.0029755291 2:0.0010388848 3:0.00047147767 4:0.0017103845 5:0.0053419571 6:0.033822875 7:0.02105177 8:0.013476011 9:0.018111502 10:0.055237127 11:0.0096855473 12:0.0038745036 13:0.035248036 14:0.011302708 15:0.0050541354 16:0.043537278 17:0.0061719825 18:0.070774661 19:0.039856193 20:0.16426276 21:0.035561721 22:0.017534643 23:0.011669754 24:0.016462955 25:0.023994534 26:0.030566538 27:0.2055582 28:0.074064166 29:0.059165221 30:0.068615165 31:0.17525713 32:0.19133444 33:0.055755128 34:0.028779821 35:0.037121803 36:0.21908877 37:0.033442364 38:0.057595437 39:0.33855949 40:0.096857496 41:0.1946856 42:0.35584793 43:0.023178566 44:0.53941721 45:0.16222815 46:0.59032089 47:0.1940537 48:0.35013754 49:0.2956904 50:0.32733678 51:0.53892352 52:0.4436621 53:0.58047919 54:0.58323529 55:0.58015933 56:0.63914625 57:0.60603833 58:0.51433222 59:0.61928872 60:0.60041481 61:0.72056595 62:0.51702614 63:0.50284214 64:0.60391113 65:0.60734732 66:0.71929139 67:1 68:0.99315842 69:0.72935217 70:0.7279089 71:0.66373459 72:0.70010139 73:0.78893246 74:0.74754195 75:0.70398737 76:0.67133581 77:0.62955039 78:0.55632313 79:0.47809831 80:0.47300818 81:0.45992321 82:0.43435683 
-0.6410967378424184 -0 0.28591198874175 0 0 0 0 0 0.1635043597945566 0 0 0.4041796092049468 0 0 0 0 0.01998821826673101 0 0 0 0 0 0.5810878069940834 0 0.3193387170581551 0 0.520217063304884 0.09075297921915508 0.1630574558866328 0 0 0.1870239397731859 0.1161736971869957 0 0.145953827347171 0 0 0 0.1840890516226951 0.3066752121863595 0.2623504228373475 0 0.198395980384827 0 0.1830842846308217 0.3336752073273838 0.07610299068817322 0 0 0 0 0 0 0.04510518212791254 0 0 0.01871790277235923 0.04781632297709496 0 0.03094576935382917 0 0.1748448552382998 0 0.2205777104429187 0.4379835995156473 0.3280981033745244 0.08712287875023178 0.08888216737839322 0.4661339834824811 0.1725957772665204 0.3367446296931361 0.1959474554417549 0.3005131374938275 0.02706310597579883 0.3149446479755746 0 0 0.0676674866474665 0 0.01594606511418137 0 0.4010798605753687 0.2132851184706817 1:0.0068336414 2:0.0038492854 3:0.0009970027 4:0.00091946903 5:0.0048360773 6:0.035327819 7:0.022336322 8:0.013730339 9:0.016745381 10:0.044080524 11:0.0061562709 12:0.0030883376 13:0.020719029 14:0.0068589453 15:0.0037687994 16:0.020746051 17:0.0087243827 18:0.022061797 19:0.028918362 20:0.17874328 21:0.035978899 22:0.026297049 23:0.0089669469 24:0.011104311 25:0.039842283 26:0.022999895 27:0.18063211 28:0.10769846 29:0.060495175 30:0.065810454 31:0.10522714 32:0.25810204 33:0.062950793 34:0.037046886 35:0.0076994491 36:0.19996264 37:0.1196685 38:0.11600417 39:0.3472959 40:0.081276824 41:0.049461 42:0.37839404 43:0.19886616 44:0.56852633 45:0.19737452 46:0.43249504 47:0.0943862 48:0.40716094 49:0.32574245 50:0.31419491 51:0.4549404 52:0.62906431 53:0.41555743 54:0.62516283 55:0.7863468 56:0.51088547 57:0.53410117 58:0.5813731 59:0.50286821 60:0.53402556 61:0.54643267 62:0.57367579 63:0.42835218 64:0.65483416 65:0.58625259 66:0.96435804 67:1 68:0.83897162 69:0.66842622 70:0.66959714 71:0.65608894 72:0.57891533 73:0.61941215 74:0.56766482 75:0.60464727 76:0.53280032 77:0.53044669 78:0.56599756 79:0.61490211 80:0.58315015 81:0.55637789 82:0.52201997 
